{"learner":{"attributes":{"best_iteration":"348","best_score":"0.9966044444444444","scikit_learn":"{\"_estimator_type\": \"classifier\"}"},"feature_names":[],"feature_types":[],"gradient_booster":{"model":{"cats":{"enc":[],"feature_segments":[],"sorted_idx":[]},"gbtree_model_param":{"num_parallel_tree":"1","num_trees":"352"},"iteration_indptr":[0,1,2,3,4,5,6,7,8,9,10,11,12,13,14,15,16,17,18,19,20,21,22,23,24,25,26,27,28,29,30,31,32,33,34,35,36,37,38,39,40,41,42,43,44,45,46,47,48,49,50,51,52,53,54,55,56,57,58,59,60,61,62,63,64,65,66,67,68,69,70,71,72,73,74,75,76,77,78,79,80,81,82,83,84,85,86,87,88,89,90,91,92,93,94,95,96,97,98,99,100,101,102,103,104,105,106,107,108,109,110,111,112,113,114,115,116,117,118,119,120,121,122,123,124,125,126,127,128,129,130,131,132,133,134,135,136,137,138,139,140,141,142,143,144,145,146,147,148,149,150,151,152,153,154,155,156,157,158,159,160,161,162,163,164,165,166,167,168,169,170,171,172,173,174,175,176,177,178,179,180,181,182,183,184,185,186,187,188,189,190,191,192,193,194,195,196,197,198,199,200,201,202,203,204,205,206,207,208,209,210,211,212,213,214,215,216,217,218,219,220,221,222,223,224,225,226,227,228,229,230,231,232,233,234,235,236,237,238,239,240,241,242,243,244,245,246,247,248,249,250,251,252,253,254,255,256,257,258,259,260,261,262,263,264,265,266,267,268,269,270,271,272,273,274,275,276,277,278,279,280,281,282,283,284,285,286,287,288,289,290,291,292,293,294,295,296,297,298,299,300,301,302,303,304,305,306,307,308,309,310,311,312,313,314,315,316,317,318,319,320,321,322,323,324,325,326,327,328,329,330,331,332,333,334,335,336,337,338,339,340,341,342,343,344,345,346,347,348,349,350,351,352],"tree_info":[0,0,0,0,0,0,0,0,0,0,0,0,0,0,0,0,0,0,0,0,0,0,0,0,0,0,0,0,0,0,0,0,0,0,0,0,0,0,0,0,0,0,0,0,0,0,0,0,0,0,0,0,0,0,0,0,0,0,0,0,0,0,0,0,0,0,0,0,0,0,0,0,0,0,0,0,0,0,0,0,0,0,0,0,0,0,0,0,0,0,0,0,0,0,0,0,0,0,0,0,0,0,0,0,0,0,0,0,0,0,0,0,0,0,0,0,0,0,0,0,0,0,0,0,0,0,0,0,0,0,0,0,0,0,0,0,0,0,0,0,0,0,0,0,0,0,0,0,0,0,0,0,0,0,0,0,0,0,0,0,0,0,0,0,0,0,0,0,0,0,0,0,0,0,0,0,0,0,0,0,0,0,0,0,0,0,0,0,0,0,0,0,0,0,0,0,0,0,0,0,0,0,0,0,0,0,0,0,0,0,0,0,0,0,0,0,0,0,0,0,0,0,0,0,0,0,0,0,0,0,0,0,0,0,0,0,0,0,0,0,0,0,0,0,0,0,0,0,0,0,0,0,0,0,0,0,0,0,0,0,0,0,0,0,0,0,0,0,0,0,0,0,0,0,0,0,0,0,0,0,0,0,0,0,0,0,0,0,0,0,0,0,0,0,0,0,0,0,0,0,0,0,0,0,0,0,0,0,0,0,0,0,0,0,0,0,0,0,0,0,0,0,0,0,0,0,0,0,0,0,0,0,0,0,0,0,0,0,0,0,0,0,0,0,0,0,0,0,0,0,0,0],"trees":[{"base_weights":[-0E0,-1.0468326E0,2.595215E-1,-1.2584995E0,-0E0,-3.3461487E-1,6.2539524E-1,-0E0,-6.671076E-2,1.12982884E-1,-7.931117E-1,-8.3492756E-2,8.1843954E-1,-3.7237874E-3,2.3556976E-2,-4.4386182E-2,-0E0,-2.4883114E-2,2.967738E-4,-0E0,4.1521356E-2],"categories":[],"categories_nodes":[],"categories_segments":[],"categories_sizes":[],"default_left":[0,0,0,0,0,0,0,0,0,0,0,0,0,0,0,0,0,0,0,0,0],"id":0,"left_children":[1,3,5,7,-1,9,11,-1,-1,13,15,17,19,-1,-1,-1,-1,-1,-1,-1,-1],"loss_changes":[9.58405E1,2.3877365E1,6.31991E1,9.789154E0,0E0,2.7175772E1,3.1327606E1,0E0,0E0,7.605203E0,1.0364258E1,5.890815E0,1.209948E1,0E0,0E0,0E0,0E0,0E0,0E0,0E0,0E0],"parents":[2147483647,0,0,1,1,2,2,3,3,5,5,6,6,9,9,10,10,11,11,12,12],"right_children":[2,4,6,8,-1,10,12,-1,-1,14,16,18,20,-1,-1,-1,-1,-1,-1,-1,-1],"split_conditions":[1E0,3.9817408E-2,2.2540789E-3,4.1631013E-2,-0E0,2.0166472E-1,-1.8463723E-1,-0E0,-6.671076E-2,6E0,2.1110247E-1,5.4642576E-1,3.3103373E0,-3.7237874E-3,2.3556976E-2,-4.4386182E-2,-0E0,-2.4883114E-2,2.967738E-4,-0E0,4.1521356E-2],"split_indices":[11,34,50,28,0,2,73,0,0,6,33,25,67,0,0,0,0,0,0,0,0],"split_type":[0,0,0,0,0,0,0,0,0,0,0,0,0,0,0,0,0,0,0,0,0],"sum_hessian":[3.22E2,6.125E1,2.6075E2,5.45E1,6.75E0,9.1E1,1.6975E2,8.5E0,4.6E1,4.05E1,5.05E1,2.825E1,1.415E2,1.775E1,2.275E1,4.475E1,5.75E0,1.25E1,1.575E1,5E0,1.365E2],"tree_param":{"num_deleted":"0","num_feature":"75","num_nodes":"21","size_leaf_vector":"1"}},{"base_weights":[-5.507257E-3,-1.0673742E0,2.3932555E-1,-0E0,-1.2536995E0,-4.0218E-1,6.2554324E-1,-1.3711686E0,-0E0,-8.3663565E-1,2.0856656E-1,-2.1613248E-2,7.957931E-1,-6.722424E-2,-0E0,-4.3683026E-2,-0E0,2.3025038E-2,-0E0,-2.110872E-2,5.691582E-4,-0E0,4.067279E-2],"categories":[],"categories_nodes":[],"categories_segments":[],"categories_sizes":[],"default_left":[0,0,0,0,0,0,0,0,0,0,0,0,0,0,0,0,0,0,0,0,0,0,0],"id":1,"left_children":[1,3,5,-1,7,9,11,13,-1,15,17,19,21,-1,-1,-1,-1,-1,-1,-1,-1,-1,-1],"loss_changes":[9.559217E1,1.585965E1,7.1420074E1,0E0,1.0360512E1,3.333108E1,2.6567528E1,1.0302887E0,0E0,7.57111E0,6.402345E0,4.2141323E0,1.1850815E1,0E0,0E0,0E0,0E0,0E0,0E0,0E0,0E0,0E0,0E0],"parents":[2147483647,0,0,1,1,2,2,4,4,5,5,6,6,7,7,9,9,10,10,11,11,12,12],"right_children":[2,4,6,-1,8,10,12,14,-1,16,18,20,22,-1,-1,-1,-1,-1,-1,-1,-1,-1,-1],"split_conditions":[1E0,4.1631013E-2,2.3386963E-3,-0E0,3.7152883E-2,6E0,-1.8463723E-1,2E0,-0E0,1.1084373E0,2.9827586E-1,1.3509256E1,-3.3333334E-1,-6.722424E-2,-0E0,-4.3683026E-2,-0E0,2.3025038E-2,-0E0,-2.110872E-2,5.691582E-4,-0E0,4.067279E-2],"split_indices":[11,28,50,0,34,6,73,13,0,20,2,17,43,0,0,0,0,0,0,0,0,0,0],"split_type":[0,0,0,0,0,0,0,0,0,0,0,0,0,0,0,0,0,0,0,0,0,0,0],"sum_hessian":[3.2210925E2,6.0697746E1,2.6141153E2,9.25E0,5.1447746E1,8.99738E1,1.7143771E2,4.6947746E1,4.5E0,5.848149E1,3.1492306E1,2.7247719E1,1.4419E2,4.3201916E1,3.745831E0,5.4733093E1,3.748398E0,2.474563E1,6.7466764E0,1.1498646E1,1.5749072E1,6.9974146E0,1.3719258E2],"tree_param":{"num_deleted":"0","num_feature":"75","num_nodes":"23","size_leaf_vector":"1"}},{"base_weights":[-5.7896975E-2,-1.0050081E0,2.2137184E-1,-1.1806976E0,-0E0,-3.3481172E-1,5.797041E-1,-1.2785652E0,-0E0,-7.0237434E-1,1.533467E-1,-1.0321205E-1,6.951673E-1,-6.539525E-2,-0E0,-0E0,-4.5142774E-2,1.9656252E-2,-0E0,-0E0,-2.2369986E-2,-0E0,3.6557693E-2],"categories":[],"categories_nodes":[],"categories_segments":[],"categories_sizes":[],"default_left":[0,0,0,0,0,0,0,0,0,0,0,0,0,0,0,0,0,0,0,0,0,0,0],"id":2,"left_children":[1,3,5,7,-1,9,11,13,-1,15,17,19,21,-1,-1,-1,-1,-1,-1,-1,-1,-1,-1],"loss_changes":[9.531544E1,1.3824356E1,5.453537E1,9.943184E0,0E0,2.2927593E1,1.8804352E1,9.934036E0,0E0,1.603135E1,4.8192673E0,3.7795537E0,1.4489502E1,0E0,0E0,0E0,0E0,0E0,0E0,0E0,0E0,0E0,0E0],"parents":[2147483647,0,0,1,1,2,2,3,3,5,5,6,6,7,7,9,9,10,10,11,11,12,12],"right_children":[2,4,6,8,-1,10,12,14,-1,16,18,20,22,-1,-1,-1,-1,-1,-1,-1,-1,-1,-1],"split_conditions":[2E0,5.036834E-1,2.3386963E-3,8.347087E-1,-0E0,6E0,-6.666667E-1,3.6068108E-2,-0E0,-6.551769E-1,2.9827586E-1,3.2017264E-3,3.4047897E0,-6.539525E-2,-0E0,-0E0,-4.5142774E-2,1.9656252E-2,-0E0,-0E0,-2.2369986E-2,-0E0,3.6557693E-2],"split_indices":[11,35,50,38,0,6,29,49,0,65,2,50,67,0,0,0,0,0,0,0,0,0,0],"split_type":[0,0,0,0,0,0,0,0,0,0,0,0,0,0,0,0,0,0,0,0,0,0,0],"sum_hessian":[3.1799228E2,7.353729E1,2.44455E2,6.0555183E1,1.2982106E1,8.691073E1,1.5754427E2,5.630986E1,4.245326E0,5.6925056E1,2.9985674E1,1.2484777E1,1.450595E2,5.1568176E1,4.7416806E0,1.323684E1,4.3688217E1,2.348875E1,6.4969225E0,4.2431197E0,8.241658E0,6.2477055E0,1.3881178E2],"tree_param":{"num_deleted":"0","num_feature":"75","num_nodes":"23","size_leaf_vector":"1"}},{"base_weights":[-0E0,-7.963812E-1,2.640268E-1,-9.394982E-1,-0E0,-3.0179173E-1,6.161644E-1,-0E0,-1.0275952E0,-7.072679E-1,2.2196463E-1,-1.2346173E-2,7.105209E-1,-0E0,-5.212672E-2,-0E0,-4.481876E-2,2.4095858E-2,-0E0,-0E0,3.722377E-2],"categories":[],"categories_nodes":[],"categories_segments":[],"categories_sizes":[],"default_left":[0,0,0,0,0,0,0,0,0,0,0,0,0,0,0,0,0,0,0,0,0],"id":3,"left_children":[1,3,5,7,-1,9,11,-1,13,15,17,-1,19,-1,-1,-1,-1,-1,-1,-1,-1],"loss_changes":[7.46488E1,1.5445744E1,5.8438053E1,1.0815392E1,0E0,2.7083956E1,2.03891E1,0E0,6.5509796E0,1.5412437E1,6.6706524E0,0E0,1.5221619E1,0E0,0E0,0E0,0E0,0E0,0E0,0E0,0E0],"parents":[2147483647,0,0,1,1,2,2,3,3,5,5,6,6,8,8,9,9,10,10,12,12],"right_children":[2,4,6,8,-1,10,12,-1,14,16,18,-1,20,-1,-1,-1,-1,-1,-1,-1,-1],"split_conditions":[2E0,7.5E0,2.3386963E-3,2.1213202E0,-0E0,6E0,3.3103373E0,-0E0,4.2558634E-1,-6.551769E-1,2.0641677E-1,-1.2346173E-2,-3.4016803E-1,-0E0,-5.212672E-2,-0E0,-4.481876E-2,2.4095858E-2,-0E0,-0E0,3.722377E-2],"split_indices":[11,24,50,27,0,6,67,0,56,65,2,0,73,0,0,0,0,0,0,0,0],"split_type":[0,0,0,0,0,0,0,0,0,0,0,0,0,0,0,0,0,0,0,0,0],"sum_hessian":[3.3989496E2,7.830235E1,2.6159262E2,7.106267E1,7.2396774E0,9.178981E1,1.698028E2,2.994089E0,6.806858E1,5.8818184E1,3.2971626E1,6.247331E0,1.6355547E2,5.2149425E0,6.285364E1,1.34860115E1,4.5332172E1,2.3975063E1,8.996561E0,8.498519E0,1.5505695E2],"tree_param":{"num_deleted":"0","num_feature":"75","num_nodes":"21","size_leaf_vector":"1"}},{"base_weights":[2.0397585E-2,-9.107819E-1,2.8390256E-1,-1.1025186E0,-0E0,-1.8380284E-1,5.686838E-1,-0E0,-1.2461648E0,-5.762778E-1,3.092235E-1,-1.724622E-1,6.5727544E-1,-0E0,-6.1549358E-2,-3.499898E-2,-0E0,2.4005052E-2,-0E0,-0E0,-1.5748573E-2,3.700062E-2,-0E0],"categories":[],"categories_nodes":[],"categories_segments":[],"categories_sizes":[],"default_left":[0,0,0,0,0,0,0,0,0,0,0,0,0,0,0,0,0,0,0,0,0,0,0],"id":4,"left_children":[1,3,5,7,-1,9,11,-1,13,15,17,19,21,-1,-1,-1,-1,-1,-1,-1,-1,-1,-1],"loss_changes":[8.220946E1,1.8859661E1,4.2062035E1,8.559883E0,0E0,2.400441E1,1.7609432E1,0E0,2.9766846E0,1.1459267E1,5.5760026E0,1.320293E0,1.6870163E1,0E0,0E0,0E0,0E0,0E0,0E0,0E0,0E0,0E0,0E0],"parents":[2147483647,0,0,1,1,2,2,3,3,5,5,6,6,8,8,9,9,10,10,11,11,12,12],"right_children":[2,4,6,8,-1,10,12,-1,14,16,18,20,22,-1,-1,-1,-1,-1,-1,-1,-1,-1,-1],"split_conditions":[1E0,3.9817408E-2,2.3386963E-3,4.1631013E-2,-0E0,6E0,3.3103373E0,-0E0,4.2558634E-1,2.1871422E-1,2.9827586E-1,1.5811388E0,6.829615E-1,-0E0,-6.1549358E-2,-3.499898E-2,-0E0,2.4005052E-2,-0E0,-0E0,-1.5748573E-2,3.700062E-2,-0E0],"split_indices":[11,34,50,28,0,6,67,0,56,33,2,27,42,0,0,0,0,0,0,0,0,0,0],"split_type":[0,0,0,0,0,0,0,0,0,0,0,0,0,0,0,0,0,0,0,0,0,0,0],"sum_hessian":[3.36651E2,6.207511E1,2.745759E2,5.4831093E1,7.244019E0,9.4117485E1,1.8045842E2,8.484036E0,4.6347054E1,6.091956E1,3.319792E1,8.246175E0,1.7221225E2,3.220628E0,4.3126427E1,5.369667E1,7.2228875E0,2.7700632E1,5.497292E0,1.2497493E0,6.996425E0,1.453233E2,2.6888945E1],"tree_param":{"num_deleted":"0","num_feature":"75","num_nodes":"23","size_leaf_vector":"1"}},{"base_weights":[-0E0,-7.410801E-1,2.2696292E-1,-0E0,-1.0584565E0,-2.3635978E-1,5.346138E-1,-3.4434342E-1,1.7176259E-1,-0E0,-1.1938016E0,-5.9176874E-1,1.9452444E-1,-2.0475297E-1,6.3544935E-1,-2.7085707E-2,-0E0,1.7648231E-2,-0E0,-5.9929665E-2,-0E0,-3.606738E-2,-0E0,2.342877E-2,-0E0,-1.6075574E-2,-0E0,-0E0,3.296969E-2],"categories":[],"categories_nodes":[],"categories_segments":[],"categories_sizes":[],"default_left":[0,0,0,0,0,0,0,0,0,0,0,0,0,0,0,0,0,0,0,0,0,0,0,0,0,0,0,0,0],"id":5,"left_children":[1,3,5,7,9,11,13,15,17,-1,19,21,23,25,27,-1,-1,-1,-1,-1,-1,-1,-1,-1,-1,-1,-1,-1,-1],"loss_changes":[6.1842346E1,1.347966E1,4.1463676E1,4.23645E0,1.1811119E1,1.9969152E1,1.7736088E1,3.2279265E0,2.1027155E0,0E0,7.405197E0,1.1903505E1,6.6063595E0,1.1702044E0,1.1205032E1,0E0,0E0,0E0,0E0,0E0,0E0,0E0,0E0,0E0,0E0,0E0,0E0,0E0,0E0],"parents":[2147483647,0,0,1,1,2,2,3,3,4,4,5,5,6,6,7,7,8,8,10,10,11,11,12,12,13,13,14,14],"right_children":[2,4,6,8,10,12,14,16,18,-1,20,22,24,26,28,-1,-1,-1,-1,-1,-1,-1,-1,-1,-1,-1,-1,-1,-1],"split_conditions":[2E0,4.7742188E-1,2.3386963E-3,2.6779357E-8,2.7858207E-1,6E0,-3.4016803E-1,7.0237505E-1,4.632629E-1,-0E0,7.7521334E0,2.1871422E-1,2.0641677E-1,1.016471E0,3.3103373E0,-2.7085707E-2,-0E0,1.7648231E-2,-0E0,-5.9929665E-2,-0E0,-3.606738E-2,-0E0,2.342877E-2,-0E0,-1.6075574E-2,-0E0,-0E0,3.296969E-2],"split_indices":[11,42,50,41,57,6,73,44,57,0,40,33,2,31,67,0,0,0,0,0,0,0,0,0,0,0,0,0,0],"split_type":[0,0,0,0,0,0,0,0,0,0,0,0,0,0,0,0,0,0,0,0,0,0,0,0,0,0,0,0,0],"sum_hessian":[3.335049E2,7.816322E1,2.5534169E2,3.2704567E1,4.5458656E1,9.19609E1,1.633808E2,2.0784573E1,1.1919994E1,3.4873507E0,4.1971306E1,5.9038803E1,3.29221E1,8.494799E0,1.5488599E2,1.1101687E1,9.682886E0,9.944446E0,1.975549E0,4.0472424E1,1.4988842E0,5.1816467E1,7.2223353E0,2.367595E1,9.24615E0,6.996011E0,1.4987882E0,5.748315E0,1.4913768E2],"tree_param":{"num_deleted":"0","num_feature":"75","num_nodes":"29","size_leaf_vector":"1"}},{"base_weights":[-0E0,-7.564049E-1,2.54788E-1,-0E0,-9.0118855E-1,-2.4988154E-1,5.6741506E-1,-1.0285721E0,-0E0,9.884176E-3,-6.4344895E-1,7.062847E-1,-0E0,-0E0,-5.2799076E-2,-1.1365447E-2,1.5587142E-2,-0E0,-4.3375902E-2,-0E0,3.6480628E-2,-1.9437624E-2,7.717741E-3],"categories":[],"categories_nodes":[],"categories_segments":[],"categories_sizes":[],"default_left":[0,0,0,0,0,0,0,0,0,0,0,0,0,0,0,0,0,0,0,0,0,0,0],"id":6,"left_children":[1,3,5,-1,7,9,11,13,-1,15,17,19,21,-1,-1,-1,-1,-1,-1,-1,-1,-1,-1],"loss_changes":[6.641563E1,1.0226074E1,4.5615917E1,0E0,1.1703732E1,1.5295767E1,1.9131973E1,6.6700974E0,0E0,5.963018E0,1.2461971E1,1.3093422E1,4.7706165E0,0E0,0E0,0E0,0E0,0E0,0E0,0E0,0E0,0E0,0E0],"parents":[2147483647,0,0,1,1,2,2,4,4,5,5,6,6,7,7,9,9,10,10,11,11,12,12],"right_children":[2,4,6,-1,8,10,12,14,-1,16,18,20,22,-1,-1,-1,-1,-1,-1,-1,-1,-1,-1],"split_conditions":[2E0,7.337994E-3,2.3386963E-3,-0E0,4.9497474E-2,2.9827586E-1,5.8359635E-1,4.2558634E-1,-0E0,1.5272667E0,-5.07672E-1,3.2176387E-3,6.670832E0,-0E0,-5.2799076E-2,-1.1365447E-2,1.5587142E-2,-0E0,-4.3375902E-2,-0E0,3.6480628E-2,-1.9437624E-2,7.717741E-3],"split_indices":[11,7,50,0,7,2,65,56,0,21,55,22,5,0,0,0,0,0,0,0,0,0,0],"split_type":[0,0,0,0,0,0,0,0,0,0,0,0,0,0,0,0,0,0,0,0,0,0,0],"sum_hessian":[3.3069293E2,7.656753E1,2.5412541E2,1.28691E1,6.369843E1,8.773784E1,1.6638757E2,5.7731796E1,5.966631E0,4.5720146E1,4.201769E1,1.423418E2,2.404577E1,5.2120323E0,5.2519764E1,1.2397105E1,3.3323044E1,1.1641557E1,3.0376133E1,3.473979E0,1.3886781E2,1.5637711E1,8.40806E0],"tree_param":{"num_deleted":"0","num_feature":"75","num_nodes":"23","size_leaf_vector":"1"}},{"base_weights":[-1.23651065E-2,-3.0521244E-1,5.0102943E-1,-5.758982E-1,2.2006655E-1,-3.85962E-2,7.266892E-1,-0E0,-8.047065E-1,-9.094458E-3,5.8389854E-1,-0E0,-2.8239474E-1,8.454728E-1,-0E0,-1.5997736E-2,8.831879E-3,-0E0,-4.821465E-2,-2.4581587E-2,4.719439E-3,-0E0,3.5654575E-2,-2.5128616E-2,-0E0,-0E0,4.4097047E-2],"categories":[],"categories_nodes":[],"categories_segments":[],"categories_sizes":[],"default_left":[0,0,0,0,0,0,0,0,0,0,0,0,0,0,0,0,0,0,0,0,0,0,0,0,0,0,0],"id":7,"left_children":[1,3,5,7,9,11,13,15,17,19,21,-1,23,25,-1,-1,-1,-1,-1,-1,-1,-1,-1,-1,-1,-1,-1],"loss_changes":[5.042384E1,3.6967873E1,2.0073729E1,1.8522259E1,1.1087754E1,2.2091753E0,1.1143486E1,5.142027E0,1.8167831E1,6.325588E0,6.153612E0,0E0,4.30768E0,9.771839E0,0E0,0E0,0E0,0E0,0E0,0E0,0E0,0E0,0E0,0E0,0E0,0E0,0E0],"parents":[2147483647,0,0,1,1,2,2,3,3,4,4,5,5,6,6,7,7,8,8,9,9,10,10,12,12,13,13],"right_children":[2,4,6,8,10,12,14,16,18,20,22,-1,24,26,-1,-1,-1,-1,-1,-1,-1,-1,-1,-1,-1,-1,-1],"split_conditions":[2.1794494E-2,1.1322875E-1,3E0,-1.4691377E0,0E0,5E-1,7.8378314E-1,3.6325608E-3,4.9497476E0,4.343197E-1,-6.3610584E-1,-0E0,9.924717E0,-5.345225E-1,-0E0,-1.5997736E-2,8.831879E-3,-0E0,-4.821465E-2,-2.4581587E-2,4.719439E-3,-0E0,3.5654575E-2,-2.5128616E-2,-0E0,-0E0,4.4097047E-2],"split_indices":[49,33,11,32,66,47,22,50,27,31,48,0,39,53,0,0,0,0,0,0,0,0,0,0,0,0,0],"split_type":[0,0,0,0,0,0,0,0,0,0,0,0,0,0,0,0,0,0,0,0,0,0,0,0,0,0,0],"sum_hessian":[3.2689996E2,2.2098329E2,1.0591667E2,1.5570142E2,6.5281876E1,2.2677723E1,8.323895E1,5.2031075E1,1.03670334E2,3.172673E1,3.355515E1,3.9643672E0,1.8713356E1,7.457614E1,8.66281E0,2.342809E1,2.8602985E1,2.5758455E1,7.791188E1,1.263317E1,1.909356E1,6.6649566E0,2.6890192E1,1.3518391E1,5.194966E0,4.221378E0,7.035477E1],"tree_param":{"num_deleted":"0","num_feature":"75","num_nodes":"27","size_leaf_vector":"1"}},{"base_weights":[-0E0,-8.057315E-1,2.3049842E-1,-9.315349E-1,-0E0,-2.2236857E-1,5.096133E-1,-0E0,-1.0616457E0,1.0292441E-1,-6.788816E-1,-0E0,7.591357E-1,-5.2444745E-2,-0E0,-7.946255E-3,1.8332439E-2,-4.361248E-2,-0E0,-1.2946824E-2,1.465412E-2,4.2147104E-2,-0E0],"categories":[],"categories_nodes":[],"categories_segments":[],"categories_sizes":[],"default_left":[0,0,0,0,0,0,0,0,0,0,0,0,0,0,0,0,0,0,0,0,0,0,0],"id":8,"left_children":[1,3,5,7,-1,9,11,-1,13,15,17,19,21,-1,-1,-1,-1,-1,-1,-1,-1,-1,-1],"loss_changes":[6.111027E1,1.016486E1,3.9026432E1,7.604698E0,0E0,2.0696386E1,2.1140007E1,0E0,2.0312805E0,6.9301286E0,1.0176212E1,7.4680586E0,1.5019997E1,0E0,0E0,0E0,0E0,0E0,0E0,0E0,0E0,0E0,0E0],"parents":[2147483647,0,0,1,1,2,2,3,3,5,5,6,6,8,8,9,9,10,10,11,11,12,12],"right_children":[2,4,6,8,-1,10,12,-1,14,16,18,20,22,-1,-1,-1,-1,-1,-1,-1,-1,-1,-1],"split_conditions":[1E0,7.25E0,2.3386963E-3,4.1631013E-2,-0E0,2.5296965E-1,-1.9393918E-1,-0E0,2E0,1.6267414E0,6.654689E-1,2.5495097E-2,8.148088E-1,-5.2444745E-2,-0E0,-7.946255E-3,1.8332439E-2,-4.361248E-2,-0E0,-1.2946824E-2,1.465412E-2,4.2147104E-2,-0E0],"split_indices":[11,24,50,28,0,2,46,0,13,21,20,49,59,0,0,0,0,0,0,0,0,0,0],"split_type":[0,0,0,0,0,0,0,0,0,0,0,0,0,0,0,0,0,0,0,0,0,0,0],"sum_hessian":[3.3313104E2,6.1526844E1,2.7160422E2,5.5328793E1,6.1980524E0,9.291567E1,1.7868854E2,8.19051E0,4.7138283E1,4.79253E1,4.499037E1,6.674806E1,1.1194048E2,4.3724743E1,3.4135396E0,1.1639574E1,3.6285725E1,3.1699474E1,1.3290898E1,2.9727463E1,3.7020596E1,9.684407E1,1.5096413E1],"tree_param":{"num_deleted":"0","num_feature":"75","num_nodes":"23","size_leaf_vector":"1"}},{"base_weights":[-0E0,-6.625833E-1,1.9503106E-1,-0E0,-8.896935E-1,-2.1781106E-1,4.6014968E-1,2.2569531E-1,-1.48536675E-2,-9.8503363E-1,-0E0,-5.966126E-1,2.0801E-1,-0E0,6.09671E-1,1.6950356E-2,-0E0,-0E0,-5.1481187E-2,-3.7242044E-2,-0E0,2.1139089E-2,-0E0,-2.5558379E-2,6.76191E-3,3.3439185E-2,-0E0],"categories":[],"categories_nodes":[],"categories_segments":[],"categories_sizes":[],"default_left":[0,0,0,0,0,0,0,0,0,0,0,0,0,0,0,0,0,0,0,0,0,0,0,0,0,0,0],"id":9,"left_children":[1,3,5,7,9,11,13,15,-1,17,-1,19,21,23,25,-1,-1,-1,-1,-1,-1,-1,-1,-1,-1,-1,-1],"loss_changes":[4.649607E1,1.2274326E1,3.1451775E1,2.9290438E0,6.0506706E0,1.9904083E1,1.6809406E1,1.628967E0,0E0,6.389847E0,0E0,1.2698717E1,5.310275E0,6.963503E0,9.082718E0,0E0,0E0,0E0,0E0,0E0,0E0,0E0,0E0,0E0,0E0,0E0,0E0],"parents":[2147483647,0,0,1,1,2,2,3,3,4,4,5,5,6,6,7,7,9,9,11,11,12,12,13,13,14,14],"right_children":[2,4,6,8,10,12,14,16,-1,18,-1,20,22,24,26,-1,-1,-1,-1,-1,-1,-1,-1,-1,-1,-1,-1],"split_conditions":[2E0,2.8643465E-1,2.3386963E-3,-1.2214533E0,1.4946786E0,6E0,-4.761905E-2,7.9167795E-1,-1.48536675E-2,5.5202305E-1,-0E0,2.1871422E-1,2.9827586E-1,6.519202E0,5.603433E-1,1.6950356E-2,-0E0,-0E0,-5.1481187E-2,-3.7242044E-2,-0E0,2.1139089E-2,-0E0,-2.5558379E-2,6.76191E-3,3.3439185E-2,-0E0],"split_indices":[11,10,50,4,37,6,73,2,0,59,0,33,2,39,63,0,0,0,0,0,0,0,0,0,0,0,0],"split_type":[0,0,0,0,0,0,0,0,0,0,0,0,0,0,0,0,0,0,0,0,0,0,0,0,0,0,0],"sum_hessian":[3.242964E2,7.378172E1,2.5051465E2,2.1625807E1,5.215592E1,8.633152E1,1.6418314E2,1.36199255E1,8.005882E0,4.7017345E1,5.138575E0,5.401795E1,3.231357E1,2.9561054E1,1.3462207E2,1.2158526E1,1.4613986E0,5.181553E0,4.1835793E1,4.704716E1,6.9707856E0,2.5842863E1,6.470707E0,1.2218758E1,1.7342297E1,1.15024796E2,1.9597284E1],"tree_param":{"num_deleted":"0","num_feature":"75","num_nodes":"27","size_leaf_vector":"1"}},{"base_weights":[5.4360265E-3,-6.080401E-1,2.3371512E-1,-7.3214245E-1,-0E0,-0E0,5.8481175E-1,-0E0,-9.136854E-1,-3.130959E-1,2.697098E-1,-0E0,6.997204E-1,-4.548535E-2,-0E0,-4.2560715E-2,8.592542E-3,2.3054585E-2,-0E0,3.7489247E-2,-0E0],"categories":[],"categories_nodes":[],"categories_segments":[],"categories_sizes":[],"default_left":[0,0,0,0,0,0,0,0,0,0,0,0,0,0,0,0,0,0,0,0,0],"id":10,"left_children":[1,3,5,7,-1,9,11,-1,13,15,17,-1,19,-1,-1,-1,-1,-1,-1,-1,-1],"loss_changes":[4.589868E1,9.889597E0,2.6532738E1,1.3310356E1,0E0,1.421829E1,1.3608028E1,0E0,4.8959236E0,3.3888012E1,7.281992E0,0E0,8.64835E0,0E0,0E0,0E0,0E0,0E0,0E0,0E0,0E0],"parents":[2147483647,0,0,1,1,2,2,3,3,5,5,6,6,8,8,9,9,10,10,12,12],"right_children":[2,4,6,8,-1,10,12,-1,14,16,18,-1,20,-1,-1,-1,-1,-1,-1,-1,-1],"split_conditions":[2E0,7.5E0,2E-2,4.1631013E-2,-0E0,-6.4430547E-1,2.3184047E0,-0E0,1.3799632E0,4.4502535E-1,4.1995803E-1,-0E0,9.0754026E-1,-4.548535E-2,-0E0,-4.2560715E-2,8.592542E-3,2.3054585E-2,-0E0,3.7489247E-2,-0E0],"split_indices":[11,24,7,28,0,66,39,0,58,31,60,0,52,0,0,0,0,0,0,0,0],"split_type":[0,0,0,0,0,0,0,0,0,0,0,0,0,0,0,0,0,0,0,0,0],"sum_hessian":[3.3071365E2,7.545178E1,2.5526186E2,6.751414E1,7.9376445E0,1.4497295E2,1.102889E2,1.1652806E1,5.5861332E1,8.0458755E1,6.45142E1,8.347136E0,1.0194177E2,5.4375633E1,1.4856994E0,4.0819443E1,3.963931E1,4.3406982E1,2.1107216E1,9.045433E1,1.1487437E1],"tree_param":{"num_deleted":"0","num_feature":"75","num_nodes":"21","size_leaf_vector":"1"}},{"base_weights":[-0E0,-3.3093953E-1,3.198664E-1,4.113118E-2,-7.834274E-1,-3.605391E-1,5.635264E-1,-1.8481407E-1,2.2409338E-1,-1.0404788E0,-0E0,-6.085505E-1,-0E0,7.308936E-1,-0E0,-0E0,-2.4502587E-2,-0E0,1.8781547E-2,-0E0,-5.2257795E-2,1.699286E-3,-1.1355375E-2,-3.946486E-2,-0E0,3.8402162E-2,-0E0,-1.3642862E-2,9.833104E-3],"categories":[],"categories_nodes":[],"categories_segments":[],"categories_sizes":[],"default_left":[0,0,0,0,0,0,0,0,0,0,0,0,0,0,0,0,0,0,0,0,0,0,0,0,0,0,0,0,0],"id":11,"left_children":[1,3,5,7,9,11,13,15,17,19,21,23,-1,25,27,-1,-1,-1,-1,-1,-1,-1,-1,-1,-1,-1,-1,-1,-1],"loss_changes":[3.5925686E1,3.36801E1,3.320459E1,4.345846E0,1.119149E1,7.2522507E0,1.6448261E1,4.409134E0,5.868449E0,6.5956345E0,1.4951669E0,7.7300844E0,0E0,1.2627789E1,3.141807E0,0E0,0E0,0E0,0E0,0E0,0E0,0E0,0E0,0E0,0E0,0E0,0E0,0E0,0E0],"parents":[2147483647,0,0,1,1,2,2,3,3,4,4,5,5,6,6,7,7,8,8,9,9,10,10,11,11,13,13,14,14],"right_children":[2,4,6,8,10,12,14,16,18,20,22,24,-1,26,28,-1,-1,-1,-1,-1,-1,-1,-1,-1,-1,-1,-1,-1,-1],"split_conditions":[2.646356E-2,-1.2214533E0,-2.5458753E-1,6.4429255E0,4.625158E-1,1.5E-2,4.8795003E-1,1.8301049E-1,1E0,2.1213202E0,3.5848767E-1,6.9408816E-1,-0E0,7.9833764E-1,3.535534E-2,-0E0,-2.4502587E-2,-0E0,1.8781547E-2,-0E0,-5.2257795E-2,1.699286E-3,-1.1355375E-2,-3.946486E-2,-0E0,3.8402162E-2,-0E0,-1.3642862E-2,9.833104E-3],"split_indices":[34,4,58,67,22,8,63,23,11,27,36,60,0,42,49,0,0,0,0,0,0,0,0,0,0,0,0,0,0],"split_type":[0,0,0,0,0,0,0,0,0,0,0,0,0,0,0,0,0,0,0,0,0,0,0,0,0,0,0,0,0],"sum_hessian":[3.2057523E2,1.5184985E2,1.6872537E2,7.799979E1,7.3850075E1,3.4250885E1,1.3447449E2,1.4459912E1,6.353987E1,4.805171E1,2.5798365E1,2.5380146E1,8.870738E0,1.068395E2,2.7634989E1,4.685598E0,9.774315E0,1.30087E1,5.053117E1,1.4792979E0,4.6572407E1,1.005521E1,1.5743155E1,1.9924992E1,5.4551563E0,1.03193436E2,3.646061E0,1.7878572E1,9.756414E0],"tree_param":{"num_deleted":"0","num_feature":"75","num_nodes":"29","size_leaf_vector":"1"}},{"base_weights":[-0E0,-6.4040345E-1,1.5688844E-1,-8.151914E-1,-0E0,-1.5939856E-1,5.2610236E-1,-0E0,-1.0139068E0,-4.6158117E-1,2.9292945E-2,-0E0,7.096831E-1,-0E0,-5.039651E-2,-0E0,-3.681284E-2,-5.2791233E-3,1.711108E-2,-1.26122525E-2,5.2733662E-6,-0E0,3.7773006E-2],"categories":[],"categories_nodes":[],"categories_segments":[],"categories_sizes":[],"default_left":[0,0,0,0,0,0,0,0,0,0,0,0,0,0,0,0,0,0,0,0,0,0,0],"id":12,"left_children":[1,3,5,7,-1,9,11,-1,13,15,17,19,21,-1,-1,-1,-1,-1,-1,-1,-1,-1,-1],"loss_changes":[3.4556255E1,1.2458664E1,3.5971676E1,1.232922E1,0E0,1.1905342E1,1.9335941E1,0E0,1.7390175E0,1.608996E1,6.2645044E0,2.1462045E0,8.7247505E0,0E0,0E0,0E0,0E0,0E0,0E0,0E0,0E0,0E0,0E0],"parents":[2147483647,0,0,1,1,2,2,3,3,5,5,6,6,8,8,9,9,10,10,11,11,12,12],"right_children":[2,4,6,8,-1,10,12,-1,14,16,18,20,22,-1,-1,-1,-1,-1,-1,-1,-1,-1,-1],"split_conditions":[1E0,7.25E0,-1.428464E-1,4.1631013E-2,-0E0,7.5E-1,-6.87772E-1,-0E0,4.2558634E-1,2.1213202E0,5.537514E-3,7.1937475E0,3.5415634E-3,-0E0,-5.039651E-2,-0E0,-3.681284E-2,-5.2791233E-3,1.711108E-2,-1.26122525E-2,5.2733662E-6,-0E0,3.7773006E-2],"split_indices":[11,24,46,28,0,74,66,0,56,5,8,5,49,0,0,0,0,0,0,0,0,0,0],"split_type":[0,0,0,0,0,0,0,0,0,0,0,0,0,0,0,0,0,0,0,0,0,0,0],"sum_hessian":[3.2353094E2,5.816566E1,2.653653E2,5.097236E1,7.1933026E0,1.3369579E2,1.3166951E2,9.420212E0,4.1552147E1,6.3051266E1,7.0644516E1,2.523877E1,1.0643074E2,3.606846E0,3.79453E1,2.0864878E1,4.2186386E1,3.654505E1,3.4099464E1,2.0399586E1,4.839184E0,1.1392738E1,9.5038E1],"tree_param":{"num_deleted":"0","num_feature":"75","num_nodes":"23","size_leaf_vector":"1"}},{"base_weights":[-0E0,-5.938727E-1,1.8450303E-1,-7.3165643E-1,-0E0,-2.3739697E-1,4.57046E-1,-0E0,-9.083808E-1,5.9842087E-2,-5.930639E-1,-0E0,6.0874265E-1,-4.8798315E-2,-0E0,-1.8161796E-3,1.5110129E-2,-0E0,-3.5861406E-2,-1.1503097E-2,1.1346293E-2,-0E0,3.3054616E-2],"categories":[],"categories_nodes":[],"categories_segments":[],"categories_sizes":[],"default_left":[0,0,0,0,0,0,0,0,0,0,0,0,0,0,0,0,0,0,0,0,0,0,0],"id":13,"left_children":[1,3,5,7,-1,9,11,-1,13,15,17,19,21,-1,-1,-1,-1,-1,-1,-1,-1,-1,-1],"loss_changes":[3.7882755E1,1.1345636E1,3.2516636E1,1.1684174E1,0E0,1.4881849E1,1.3305428E1,0E0,3.434311E0,3.6995392E0,7.5468636E0,3.429779E0,1.2024776E1,0E0,0E0,0E0,0E0,0E0,0E0,0E0,0E0,0E0,0E0],"parents":[2147483647,0,0,1,1,2,2,3,3,5,5,6,6,8,8,9,9,10,10,11,11,12,12],"right_children":[2,4,6,8,-1,10,12,-1,14,16,18,20,22,-1,-1,-1,-1,-1,-1,-1,-1,-1,-1],"split_conditions":[2E0,7.5E0,2.3386963E-3,4.1631013E-2,-0E0,-3.025626E-1,1.8939395E-2,-0E0,1.2049456E-7,1.5272667E0,8.227729E-2,4.527693E0,-3.4016803E-1,-4.8798315E-2,-0E0,-1.8161796E-3,1.5110129E-2,-0E0,-3.5861406E-2,-1.1503097E-2,1.1346293E-2,-0E0,3.3054616E-2],"split_indices":[11,24,50,28,0,65,34,0,41,21,18,47,73,0,0,0,0,0,0,0,0,0,0],"split_type":[0,0,0,0,0,0,0,0,0,0,0,0,0,0,0,0,0,0,0,0,0,0,0],"sum_hessian":[3.2115036E2,7.293717E1,2.482132E2,6.597472E1,6.9624586E0,8.588954E1,1.6232365E2,1.2382656E1,5.3592056E1,3.8359398E1,4.753014E1,3.9100246E1,1.23223404E2,4.2282017E1,1.1310041E1,1.0552195E1,2.7807205E1,9.350985E0,3.8179157E1,2.404851E1,1.5051735E1,8.221919E0,1.1500149E2],"tree_param":{"num_deleted":"0","num_feature":"75","num_nodes":"23","size_leaf_vector":"1"}},{"base_weights":[-0E0,-4.5282462E-1,2.3436585E-1,7.265505E-2,-9.531488E-1,-4.005188E-2,5.910515E-1,4.1759524E-1,-0E0,-1.003816E0,-0E0,-3.1125838E-1,3.4533012E-1,6.75056E-1,-0E0,2.758326E-2,-0E0,2.1090962E-3,-1.6523369E-2,-0E0,-4.955162E-2,-2.7447361E-2,-0E0,2.5021361E-2,-0E0,3.4472376E-2,-0E0],"categories":[],"categories_nodes":[],"categories_segments":[],"categories_sizes":[],"default_left":[0,0,0,0,0,0,0,0,0,0,0,0,0,0,0,0,0,0,0,0,0,0,0,0,0,0,0],"id":14,"left_children":[1,3,5,7,9,11,13,15,17,19,-1,21,23,25,-1,-1,-1,-1,-1,-1,-1,-1,-1,-1,-1,-1,-1],"loss_changes":[3.692169E1,4.043539E1,2.5548742E1,4.965274E0,5.6396027E0,1.2812663E1,9.695484E0,4.4264426E0,3.2978857E0,4.407608E0,0E0,1.0826217E1,4.6429667E0,6.9205475E0,0E0,0E0,0E0,0E0,0E0,0E0,0E0,0E0,0E0,0E0,0E0,0E0,0E0],"parents":[2147483647,0,0,1,1,2,2,3,3,4,4,5,5,6,6,7,7,8,8,9,9,11,11,12,12,13,13],"right_children":[2,4,6,8,10,12,14,16,18,20,-1,22,24,26,-1,-1,-1,-1,-1,-1,-1,-1,-1,-1,-1,-1,-1],"split_conditions":[1.8939395E-2,-1.4756242E0,-1.428464E-1,2.8904808E-1,7.7521334E0,2.9154759E-2,5.576572E-1,2.0404247E1,3.9138436E-1,-1.0045342E0,-0E0,9.773895E-1,8.992587E0,9.16154E-1,-0E0,2.758326E-2,-0E0,2.1090962E-3,-1.6523369E-2,-0E0,-4.955162E-2,-2.7447361E-2,-0E0,2.5021361E-2,-0E0,3.4472376E-2,-0E0],"split_indices":[34,4,46,35,40,49,55,27,42,45,0,74,61,25,0,0,0,0,0,0,0,0,0,0,0,0,0],"split_type":[0,0,0,0,0,0,0,0,0,0,0,0,0,0,0,0,0,0,0,0,0,0,0,0,0,0,0],"sum_hessian":[3.1590457E2,1.1374843E2,2.0215613E2,5.1347755E1,6.2400677E1,1.0585081E2,9.630532E1,2.0725794E1,3.0621962E1,6.0913307E1,1.4873698E0,7.59143E1,2.9936504E1,9.286536E1,3.4399638E0,1.8786797E1,1.9389962E0,1.3743657E1,1.6878305E1,2.1981337E0,5.871517E1,4.6794674E1,2.9119627E1,2.3629593E1,6.3069115E0,9.0688835E1,2.1765244E0],"tree_param":{"num_deleted":"0","num_feature":"75","num_nodes":"27","size_leaf_vector":"1"}},{"base_weights":[-0E0,-5.810951E-1,1.8027596E-1,-6.943417E-1,-0E0,-8.198707E-2,4.8251757E-1,-0E0,-8.769094E-1,-2.9097447E-1,2.4274771E-1,6.030904E-1,-0E0,-4.3798737E-2,-0E0,-2.5202954E-2,-0E0,2.2954423E-2,-0E0,-0E0,3.143832E-2,-1.1983761E-2,-0E0],"categories":[],"categories_nodes":[],"categories_segments":[],"categories_sizes":[],"default_left":[0,0,0,0,0,0,0,0,0,0,0,0,0,0,0,0,0,0,0,0,0,0,0],"id":15,"left_children":[1,3,5,7,-1,9,11,-1,13,15,17,19,21,-1,-1,-1,-1,-1,-1,-1,-1,-1,-1],"loss_changes":[3.5101288E1,9.203403E0,2.4530548E1,1.216061E1,0E0,1.0172958E1,1.2013554E1,0E0,4.5855827E0,9.221558E0,6.1602526E0,8.640137E0,1.026508E0,0E0,0E0,0E0,0E0,0E0,0E0,0E0,0E0,0E0,0E0],"parents":[2147483647,0,0,1,1,2,2,3,3,5,5,6,6,8,8,9,9,10,10,11,11,12,12],"right_children":[2,4,6,8,-1,10,12,-1,14,16,18,20,22,-1,-1,-1,-1,-1,-1,-1,-1,-1,-1],"split_conditions":[2E0,1.1E1,-1.428464E-1,4.1631013E-2,-0E0,2.6457513E-2,3.3562016E-1,-0E0,1.3799632E0,4.1184157E-1,1.6647527E-1,7.955757E-4,8.451543E-3,-4.3798737E-2,-0E0,-2.5202954E-2,-0E0,2.2954423E-2,-0E0,-0E0,3.143832E-2,-1.1983761E-2,-0E0],"split_indices":[11,24,46,28,0,49,55,0,58,31,43,22,49,0,0,0,0,0,0,0,0,0,0],"split_type":[0,0,0,0,0,0,0,0,0,0,0,0,0,0,0,0,0,0,0,0,0,0,0],"sum_hessian":[3.2203638E2,6.909111E1,2.5294527E2,6.4607765E1,4.483346E0,1.2439711E2,1.2854816E2,1.186556E1,5.2742207E1,9.192118E1,3.247593E1,1.1186421E2,1.6683947E1,5.1263824E1,1.4783816E0,5.2756535E1,3.9164642E1,2.6854149E1,5.6217794E0,2.67232E0,1.09191895E2,6.296841E0,1.0387105E1],"tree_param":{"num_deleted":"0","num_feature":"75","num_nodes":"23","size_leaf_vector":"1"}},{"base_weights":[-6.9911405E-3,-6.663502E-1,1.218537E-1,-7.710187E-1,-0E0,4.788901E-1,-8.051273E-2,-0E0,-4.4998758E-2,-0E0,6.043658E-1,1.4373668E-1,-4.5038703E-1,-0E0,3.2837607E-2,-3.1521453E-3,2.116698E-2,-4.2644057E-2,-0E0],"categories":[],"categories_nodes":[],"categories_segments":[],"categories_sizes":[],"default_left":[0,0,0,0,0,0,0,0,0,0,0,0,0,0,0,0,0,0,0],"id":16,"left_children":[1,3,5,7,-1,9,11,-1,-1,-1,13,15,17,-1,-1,-1,-1,-1,-1],"loss_changes":[3.215907E1,8.102764E0,2.2608395E1,1.0362995E1,0E0,1.0153849E1,1.6482533E1,0E0,0E0,0E0,1.0274357E1,9.45829E0,1.4249664E1,0E0,0E0,0E0,0E0,0E0,0E0],"parents":[2147483647,0,0,1,1,2,2,3,3,5,5,6,6,10,10,11,11,12,12],"right_children":[2,4,6,8,-1,10,12,-1,-1,-1,14,16,18,-1,-1,-1,-1,-1,-1],"split_conditions":[1E0,4.342858E1,2.9352481E0,4.1631013E-2,-0E0,6.6110716E0,3.3158284E-1,-0E0,-4.4998758E-2,-0E0,5.0761276E-1,6.828794E0,1.3022642E-2,-0E0,3.2837607E-2,-3.1521453E-3,2.116698E-2,-4.2644057E-2,-0E0],"split_indices":[11,17,15,28,0,67,2,0,0,0,71,61,49,0,0,0,0,0,0],"split_type":[0,0,0,0,0,0,0,0,0,0,0,0,0,0,0,0,0,0,0],"sum_hessian":[3.063269E2,5.4114773E1,2.5221214E2,5.162228E1,2.4924927E0,1.0140705E2,1.5080508E2,9.890303E0,4.1731976E1,1.3506556E1,8.79005E1,8.349694E1,6.730814E1,2.9053507E0,8.499515E1,3.767E1,4.5826942E1,2.6893612E1,4.0414536E1],"tree_param":{"num_deleted":"0","num_feature":"75","num_nodes":"19","size_leaf_vector":"1"}},{"base_weights":[-0E0,-3.512786E-1,2.4250816E-1,-0E0,-7.919629E-1,-7.940672E-2,6.2641567E-1,-1.9008046E-1,2.6987028E-1,-1.0270175E0,-0E0,-3.3498487E-1,1.4543496E-1,6.865073E-1,-0E0,-1.9920615E-2,-0E0,-0E0,2.085167E-2,-5.1127154E-2,-0E0,1.03961965E-2,-1.5183573E-2,-0E0,-2.817904E-2,1.925649E-2,-0E0,3.5228394E-2,-0E0],"categories":[],"categories_nodes":[],"categories_segments":[],"categories_sizes":[],"default_left":[0,0,0,0,0,0,0,0,0,0,0,0,0,0,0,0,0,0,0,0,0,0,0,0,0,0,0,0,0],"id":17,"left_children":[1,3,5,7,9,11,13,15,17,19,21,23,25,27,-1,-1,-1,-1,-1,-1,-1,-1,-1,-1,-1,-1,-1,-1,-1],"loss_changes":[2.8269167E1,2.5867998E1,2.9742485E1,4.901707E0,7.711403E0,8.105997E0,7.0611E0,4.0573263E0,4.941804E0,3.2247925E0,3.2694888E0,9.786617E0,5.055365E0,5.1353836E0,0E0,0E0,0E0,0E0,0E0,0E0,0E0,0E0,0E0,0E0,0E0,0E0,0E0,0E0,0E0],"parents":[2147483647,0,0,1,1,2,2,3,3,4,4,5,5,6,6,7,7,8,8,9,9,10,10,11,11,12,12,13,13],"right_children":[2,4,6,8,10,12,14,16,18,20,22,24,26,28,-1,-1,-1,-1,-1,-1,-1,-1,-1,-1,-1,-1,-1,-1,-1],"split_conditions":[2.1027217E-2,-1.2214533E0,-1.8859884E-1,6.342745E-1,3.5250738E0,4.4510928E-1,5.576572E-1,1.1322875E-1,6.654155E0,7.2374684E-1,3.559026E0,-5.673166E-1,3E0,8.499708E-1,-0E0,-1.9920615E-2,-0E0,-0E0,2.085167E-2,-5.1127154E-2,-0E0,1.03961965E-2,-1.5183573E-2,-0E0,-2.817904E-2,1.925649E-2,-0E0,3.5228394E-2,-0E0],"split_indices":[34,4,46,44,5,20,55,33,67,9,5,60,0,18,0,0,0,0,0,0,0,0,0,0,0,0,0,0,0],"split_type":[0,0,0,0,0,0,0,0,0,0,0,0,0,0,0,0,0,0,0,0,0,0,0,0,0,0,0,0,0],"sum_hessian":[3.1452972E2,1.2423522E2,1.902945E2,6.625456E1,5.7980656E1,9.58254E1,9.446909E1,2.6396633E1,3.985793E1,3.7900486E1,2.008017E1,6.0009087E1,3.581632E1,9.203142E1,2.4376771E0,2.0418917E1,5.9777184E0,5.7728944E0,3.4085037E1,3.57482E1,2.1522858E0,4.9787736E0,1.5101397E1,2.0340937E1,3.966815E1,2.6470257E1,9.34606E0,8.539075E1,6.6406684E0],"tree_param":{"num_deleted":"0","num_feature":"75","num_nodes":"29","size_leaf_vector":"1"}},{"base_weights":[-2.8720533E-2,-5.6964916E-1,1.097371E-1,-7.428858E-1,-0E0,-2.7074623E-1,2.7586767E-1,-0E0,-8.6959517E-1,-0E0,-4.9105856E-1,3.918406E-1,-2.539849E-1,-4.7837976E-2,-0E0,1.3197338E-2,-0E0,-3.371666E-2,-0E0,-3.0799883E-3,2.3102647E-2,-0E0,-2.168962E-2],"categories":[],"categories_nodes":[],"categories_segments":[],"categories_sizes":[],"default_left":[0,0,0,0,0,0,0,0,0,0,0,0,0,0,0,0,0,0,0,0,0,0,0],"id":18,"left_children":[1,3,5,7,-1,9,11,-1,13,15,17,19,21,-1,-1,-1,-1,-1,-1,-1,-1,-1,-1],"loss_changes":[2.8496222E1,1.0234287E1,1.665965E1,7.251129E0,0E0,7.9171243E0,1.4093443E1,0E0,3.599434E0,1.3645921E0,9.224718E0,1.1782114E1,3.2166848E0,0E0,0E0,0E0,0E0,0E0,0E0,0E0,0E0,0E0,0E0],"parents":[2147483647,0,0,1,1,2,2,3,3,5,5,6,6,8,8,9,9,10,10,11,11,12,12],"right_children":[2,4,6,8,-1,10,12,-1,14,16,18,20,22,-1,-1,-1,-1,-1,-1,-1,-1,-1,-1],"split_conditions":[2E0,5.036834E-1,5.6310735E0,8.7654746E-1,-0E0,2.9439204E0,7.9821455E-1,-0E0,1.2049456E-7,3.44784E-1,5.8309517E0,-5.8532256E-1,4.135612E-6,-4.7837976E-2,-0E0,1.3197338E-2,-0E0,-3.371666E-2,-0E0,-3.0799883E-3,2.3102647E-2,-0E0,-2.168962E-2],"split_indices":[11,35,67,62,0,27,22,0,41,10,47,29,2,0,0,0,0,0,0,0,0,0,0],"split_type":[0,0,0,0,0,0,0,0,0,0,0,0,0,0,0,0,0,0,0,0,0,0,0],"sum_hessian":[3.116647E2,6.970545E1,2.4195924E2,5.557871E1,1.4126745E1,5.644366E1,1.8551558E2,8.019449E0,4.755926E1,1.3129127E1,4.3314537E1,1.6716617E2,1.8349411E1,3.588263E1,1.167663E1,7.8238974E0,5.305229E0,3.3391373E1,9.923163E0,1.5099608E1,1.5206656E2,4.2255635E0,1.4123848E1],"tree_param":{"num_deleted":"0","num_feature":"75","num_nodes":"23","size_leaf_vector":"1"}},{"base_weights":[-0E0,-2.6744467E-1,3.990057E-1,-7.1606237E-1,-0E0,-2.3397913E-2,5.4567766E-1,-8.3194315E-1,-0E0,2.4637611E-1,-3.576435E-1,-1.3352358E-2,-0E0,-0E0,6.4205635E-1,-4.473638E-2,-0E0,2.6224125E-2,-0E0,-3.10619E-2,-0E0,3.3952825E-2,-0E0],"categories":[],"categories_nodes":[],"categories_segments":[],"categories_sizes":[],"default_left":[0,0,0,0,0,0,0,0,0,0,0,0,0,0,0,0,0,0,0,0,0,0,0],"id":19,"left_children":[1,3,5,7,9,11,13,15,-1,17,19,-1,-1,-1,21,-1,-1,-1,-1,-1,-1,-1,-1],"loss_changes":[3.4195656E1,2.5502312E1,1.2080641E1,8.903515E0,1.2707403E1,1.4205328E0,8.558264E0,9.327969E0,0E0,1.1215363E1,9.530144E0,0E0,0E0,0E0,7.3171844E0,0E0,0E0,0E0,0E0,0E0,0E0,0E0,0E0],"parents":[2147483647,0,0,1,1,2,2,3,3,4,4,5,5,6,6,7,7,9,9,10,10,14,14],"right_children":[2,4,6,8,10,12,14,16,-1,18,20,-1,-1,-1,22,-1,-1,-1,-1,-1,-1,-1,-1],"split_conditions":[2.1213204E-2,1.6331774E0,2E0,1.8601076E1,1.4119424E0,3.7416574E-2,2.408319E0,9.5985484E-1,-0E0,1.0951379E-1,4.4510928E-1,-1.3352358E-2,-0E0,-0E0,7.738058E-1,-4.473638E-2,-0E0,2.6224125E-2,-0E0,-3.10619E-2,-0E0,3.3952825E-2,-0E0],"split_indices":[49,21,11,27,40,49,39,18,0,65,20,0,0,0,43,0,0,0,0,0,0,0,0],"split_type":[0,0,0,0,0,0,0,0,0,0,0,0,0,0,0,0,0,0,0,0,0,0,0],"sum_hessian":[3.0848566E2,1.9537326E2,1.1311239E2,6.873709E1,1.2663617E2,1.6574867E1,9.653752E1,6.1299973E1,7.437116E0,7.8854095E1,4.7782074E1,8.297926E0,8.27694E0,8.710047E0,8.782747E1,5.5265564E1,6.034408E0,4.4012753E1,3.4841347E1,2.9271385E1,1.851069E1,8.195472E1,5.8727546E0],"tree_param":{"num_deleted":"0","num_feature":"75","num_nodes":"23","size_leaf_vector":"1"}},{"base_weights":[-0E0,-5.2092963E-1,1.4228395E-1,-0E0,-6.577149E-1,-4.4937138E-2,4.9629134E-1,-7.833335E-1,-0E0,-3.4641093E-1,2.0726542E-1,6.238476E-1,-0E0,-0E0,-4.1509252E-2,-3.9827205E-2,3.9218604E-3,-0E0,2.1275943E-2,-0E0,3.4677964E-2],"categories":[],"categories_nodes":[],"categories_segments":[],"categories_sizes":[],"default_left":[0,0,0,0,0,0,0,0,0,0,0,0,0,0,0,0,0,0,0,0,0],"id":20,"left_children":[1,3,5,-1,7,9,11,13,-1,15,17,19,-1,-1,-1,-1,-1,-1,-1,-1,-1],"loss_changes":[2.6182423E1,7.050888E0,2.095773E1,0E0,7.959669E0,1.4086694E1,9.531799E0,6.1648827E0,0E0,2.671439E1,5.642783E0,9.393539E0,0E0,0E0,0E0,0E0,0E0,0E0,0E0,0E0,0E0],"parents":[2147483647,0,0,1,1,2,2,4,4,5,5,6,6,7,7,9,9,10,10,11,11],"right_children":[2,4,6,-1,8,10,12,14,-1,16,18,20,-1,-1,-1,-1,-1,-1,-1,-1,-1],"split_conditions":[2E0,4.1631013E-2,2.1213204E-2,-0E0,7.5E0,-6.4430547E-1,7.5074166E-1,4.7434163E0,-0E0,4.1954073E-1,4.8221326E-1,2.409637E-2,-0E0,-0E0,-4.1509252E-2,-3.9827205E-2,3.9218604E-3,-0E0,2.1275943E-2,-0E0,3.4677964E-2],"split_indices":[11,28,49,0,24,66,22,27,0,31,35,40,0,0,0,0,0,0,0,0,0],"split_type":[0,0,0,0,0,0,0,0,0,0,0,0,0,0,0,0,0,0,0,0,0],"sum_hessian":[3.1437204E2,6.7779366E1,2.4659267E2,1.2536123E1,5.524324E1,1.513588E2,9.523388E1,4.9087997E1,6.155246E0,8.237652E1,6.898228E1,8.1241135E1,1.3992739E1,4.2746615E0,4.4813335E1,4.283418E1,3.954234E1,3.4289227E1,3.4693054E1,8.12583E0,7.311531E1],"tree_param":{"num_deleted":"0","num_feature":"75","num_nodes":"21","size_leaf_vector":"1"}},{"base_weights":[-0E0,-4.589902E-1,2.1279752E-1,-6.062409E-1,-0E0,-2.4010126E-1,3.5831654E-1,2.2166048E-3,-7.655367E-1,-0E0,-4.405386E-1,4.633941E-1,-1.1460079E-1,-0E0,-4.2024627E-2,-2.7522948E-2,-0E0,-0E0,2.8317608E-2,-1.6999967E-2,-0E0],"categories":[],"categories_nodes":[],"categories_segments":[],"categories_sizes":[],"default_left":[0,0,0,0,0,0,0,0,0,0,0,0,0,0,0,0,0,0,0,0,0],"id":21,"left_children":[1,3,5,7,-1,9,11,-1,13,-1,15,17,19,-1,-1,-1,-1,-1,-1,-1,-1],"loss_changes":[3.272182E1,1.1740517E1,1.6499866E1,1.6069447E1,0E0,4.549179E0,1.2684444E1,0E0,1.2205204E1,0E0,4.453309E0,1.2392441E1,1.8666158E0,0E0,0E0,0E0,0E0,0E0,0E0,0E0,0E0],"parents":[2147483647,0,0,1,1,2,2,3,3,5,5,6,6,8,8,10,10,11,11,12,12],"right_children":[2,4,6,8,-1,10,12,-1,14,-1,16,18,20,-1,-1,-1,-1,-1,-1,-1,-1],"split_conditions":[1.8915359E0,1.6730516E1,-2.2416148E-1,2.1213202E0,-0E0,9.059182E-2,4.6806344E-1,2.2166048E-3,1.3254959E-2,-0E0,7.7521334E0,8.49337E-1,8.76669E-1,-0E0,-4.2024627E-2,-2.7522948E-2,-0E0,-0E0,2.8317608E-2,-1.6999967E-2,-0E0],"split_indices":[21,72,53,27,0,25,55,0,25,0,40,38,71,0,0,0,0,0,0,0,0],"split_type":[0,0,0,0,0,0,0,0,0,0,0,0,0,0,0,0,0,0,0,0,0],"sum_hessian":[3.111071E2,9.782352E1,2.1328355E2,8.3924644E1,1.389887E1,3.6411213E1,1.7687234E2,7.513791E0,7.641085E1,8.89769E0,2.7513523E1,1.593056E2,1.7566742E1,7.202994E0,6.920786E1,2.4607294E1,2.9062288E0,3.4009113E1,1.2529649E2,7.508835E0,1.0057906E1],"tree_param":{"num_deleted":"0","num_feature":"75","num_nodes":"21","size_leaf_vector":"1"}},{"base_weights":[-0E0,-1.235163E-1,5.214317E-1,-3.3215868E-1,2.8150734E-1,-0E0,6.4201903E-1,-0E0,-5.402653E-1,5.9742594E-1,-0E0,7.715279E-1,-0E0,-1.2825093E-2,9.32317E-3,-0E0,-3.0189764E-2,-0E0,3.449791E-2,-1.3241697E-2,6.9808983E-3,-0E0,3.8801666E-2],"categories":[],"categories_nodes":[],"categories_segments":[],"categories_sizes":[],"default_left":[0,0,0,0,0,0,0,0,0,0,0,0,0,0,0,0,0,0,0,0,0,0,0],"id":22,"left_children":[1,3,5,7,9,-1,11,13,15,17,19,21,-1,-1,-1,-1,-1,-1,-1,-1,-1,-1,-1],"loss_changes":[1.8503101E1,2.449302E1,4.3638344E0,1.28510895E1,1.133242E1,0E0,6.2290573E0,5.4456096E0,1.1036549E1,7.6182995E0,3.0639427E0,2.0165024E0,0E0,0E0,0E0,0E0,0E0,0E0,0E0,0E0,0E0,0E0,0E0],"parents":[2147483647,0,0,1,1,2,2,3,3,4,4,6,6,7,7,8,8,9,9,10,10,11,11],"right_children":[2,4,6,8,10,-1,12,14,16,18,20,22,-1,-1,-1,-1,-1,-1,-1,-1,-1,-1,-1],"split_conditions":[3.6068108E-2,8.3679146E-1,-2.2416148E-1,3.9875993E-1,4.024963E-1,-0E0,7.3554444E-1,6.5908945E-1,-1.797784E0,2.9011493E0,4.091488E-4,3.3333334E-1,-0E0,-1.2825093E-2,9.32317E-3,-0E0,-3.0189764E-2,-0E0,3.449791E-2,-1.3241697E-2,6.9808983E-3,-0E0,3.8801666E-2],"split_indices":[49,36,53,36,42,0,18,10,4,61,51,54,0,0,0,0,0,0,0,0,0,0,0],"split_type":[0,0,0,0,0,0,0,0,0,0,0,0,0,0,0,0,0,0,0,0,0,0,0],"sum_hessian":[3.0771045E2,2.646363E2,4.307416E1,1.8939185E2,7.5244446E1,7.339039E0,3.5735123E1,7.97427E1,1.09649155E2,4.099516E1,3.424929E1,3.2259632E1,3.4754877E0,3.561064E1,4.413206E1,7.439031E0,1.0221012E2,2.6341953E0,3.8360966E1,2.3634375E1,1.0614915E1,2.0932086E0,3.0166426E1],"tree_param":{"num_deleted":"0","num_feature":"75","num_nodes":"23","size_leaf_vector":"1"}},{"base_weights":[-0E0,-3.5604447E-1,1.825527E-1,-7.7435744E-1,3.2590742E-3,-1.5912104E-2,4.806205E-1,-0E0,-8.8666075E-1,-1.2807296E-1,3.758627E-1,-6.020862E-1,5.658113E-2,5.941323E-1,-0E0,-0E0,-4.6320915E-2,-0E0,-1.667144E-2,-0E0,2.5214568E-2,-3.3862084E-2,-0E0,-2.0069939E-3,1.9999858E-2,3.12788E-2,-0E0],"categories":[],"categories_nodes":[],"categories_segments":[],"categories_sizes":[],"default_left":[0,0,0,0,0,0,0,0,0,0,0,0,0,0,0,0,0,0,0,0,0,0,0,0,0,0,0],"id":23,"left_children":[1,3,5,7,9,11,13,-1,15,17,19,21,23,25,-1,-1,-1,-1,-1,-1,-1,-1,-1,-1,-1,-1,-1],"loss_changes":[2.169893E1,2.376912E1,1.6545774E1,9.129677E0,5.5033E0,9.989079E0,8.156307E0,0E0,7.517185E0,3.3407507E0,4.367887E0,3.4617758E0,7.116927E0,6.77302E0,0E0,0E0,0E0,0E0,0E0,0E0,0E0,0E0,0E0,0E0,0E0,0E0,0E0],"parents":[2147483647,0,0,1,1,2,2,3,3,4,4,5,5,6,6,8,8,9,9,10,10,11,11,12,12,13,13],"right_children":[2,4,6,8,10,12,14,-1,16,18,20,22,24,26,-1,-1,-1,-1,-1,-1,-1,-1,-1,-1,-1,-1,-1],"split_conditions":[1.8505912E-2,3.535534E0,-1.428464E-1,-8.164966E-1,7.8503734E-1,2.9419082E-1,7.5240916E-1,-0E0,7.771561E-16,5E-1,6.7391887E0,6E0,2.6457513E-2,5.576572E-1,-0E0,-0E0,-4.6320915E-2,-0E0,-1.667144E-2,-0E0,2.5214568E-2,-3.3862084E-2,-0E0,-2.0069939E-3,1.9999858E-2,3.12788E-2,-0E0],"split_indices":[34,5,46,73,36,64,25,0,2,24,67,38,49,55,0,0,0,0,0,0,0,0,0,0,0,0,0],"split_type":[0,0,0,0,0,0,0,0,0,0,0,0,0,0,0,0,0,0,0,0,0,0,0,0,0,0,0],"sum_hessian":[3.089464E2,1.0560068E2,2.0334572E2,5.4399647E1,5.1201035E1,1.1072126E2,9.2624466E1,3.5706873E0,5.082896E1,2.5961052E1,2.523998E1,1.7136524E1,9.358474E1,8.040388E1,1.2220587E1,3.4225051E0,4.7406456E1,4.1706095E0,2.1790443E1,2.3558738E0,2.2884108E1,1.5902456E1,1.2340683E0,6.2516792E1,3.1067945E1,7.7973595E1,2.4302845E0],"tree_param":{"num_deleted":"0","num_feature":"75","num_nodes":"27","size_leaf_vector":"1"}},{"base_weights":[-0E0,-3.4365365E-1,1.6768485E-1,-6.085376E-1,-0E0,-3.2399222E-1,3.1660953E-1,-8.730627E-1,-0E0,2.4364762E-1,-0E0,-5.38745E-1,-0E0,5.384928E-1,-0E0,-4.8160106E-2,-0E0,-0E0,1.8392412E-2,-3.246799E-2,-0E0,3.01481E-2,-0E0,1.0286136E-2,-1.9502202E-2],"categories":[],"categories_nodes":[],"categories_segments":[],"categories_sizes":[],"default_left":[0,0,0,0,0,0,0,0,0,0,0,0,0,0,0,0,0,0,0,0,0,0,0,0,0],"id":24,"left_children":[1,3,5,7,9,11,13,15,-1,17,-1,19,-1,21,23,-1,-1,-1,-1,-1,-1,-1,-1,-1,-1],"loss_changes":[1.8657957E1,1.4381189E1,1.7152763E1,1.4165512E1,1.904739E0,5.4551554E0,1.3207188E1,7.9212E0,0E0,2.6507325E0,0E0,5.092288E0,0E0,9.719849E0,8.722002E0,0E0,0E0,0E0,0E0,0E0,0E0,0E0,0E0,0E0,0E0],"parents":[2147483647,0,0,1,1,2,2,3,3,4,4,5,5,6,6,7,7,9,9,11,11,13,13,14,14],"right_children":[2,4,6,8,10,12,14,16,-1,18,-1,20,-1,22,24,-1,-1,-1,-1,-1,-1,-1,-1,-1,-1],"split_conditions":[1.6267414E0,6.2671653E-3,-2.2416148E-1,8.738447E-1,4.2262676E-1,6.297376E-1,1.7847791E-1,1.2679882E-1,-0E0,9.111258E-1,-0E0,6.238692E-2,-0E0,8.499708E-1,-1.2214533E0,-4.8160106E-2,-0E0,-0E0,1.8392412E-2,-3.246799E-2,-0E0,3.01481E-2,-0E0,1.0286136E-2,-1.9502202E-2],"split_indices":[21,8,53,10,53,20,65,33,0,47,0,49,0,22,4,0,0,0,0,0,0,0,0,0,0],"split_type":[0,0,0,0,0,0,0,0,0,0,0,0,0,0,0,0,0,0,0,0,0,0,0,0,0],"sum_hessian":[3.0768646E2,9.562039E1,2.1206606E2,6.2796024E1,3.2824368E1,3.3659245E1,1.7840681E2,4.4160435E1,1.8635588E1,2.2493856E1,1.033051E1,2.4845373E1,8.813872E0,1.0094368E2,7.7463135E1,3.7266315E1,6.8941193E0,2.1515229E0,2.0342333E1,2.2222227E1,2.6231472E0,9.25679E1,8.375774E0,5.3681454E1,2.3781681E1],"tree_param":{"num_deleted":"0","num_feature":"75","num_nodes":"25","size_leaf_vector":"1"}},{"base_weights":[-0E0,-1.2888265E-1,3.8828275E-1,-3.4926572E-1,2.7696353E-1,-0E0,5.675738E-1,-5.065779E-1,-0E0,-0E0,5.0719225E-1,6.763841E-1,-0E0,-3.23181E-2,-0E0,9.942256E-3,-4.980404E-3,-1.1989617E-2,-0E0,-0E0,3.203063E-2,3.49066E-2,-0E0],"categories":[],"categories_nodes":[],"categories_segments":[],"categories_sizes":[],"default_left":[0,0,0,0,0,0,0,0,0,0,0,0,0,0,0,0,0,0,0,0,0,0,0],"id":25,"left_children":[1,3,5,7,9,-1,11,13,15,17,19,21,-1,-1,-1,-1,-1,-1,-1,-1,-1,-1,-1],"loss_changes":[1.6540182E1,2.3161964E1,1.0130904E1,1.2429516E1,8.586456E0,0E0,7.617998E0,1.2668095E1,1.9781051E0,1.322145E0,8.796664E0,4.350275E0,0E0,0E0,0E0,0E0,0E0,0E0,0E0,0E0,0E0,0E0,0E0],"parents":[2147483647,0,0,1,1,2,2,3,3,4,4,6,6,7,7,8,8,9,9,10,10,11,11],"right_children":[2,4,6,8,10,-1,12,14,16,18,20,22,-1,-1,-1,-1,-1,-1,-1,-1,-1,-1,-1],"split_conditions":[2.6280774E-2,8.3679146E-1,-2.2416148E-1,4.4502535E-1,3.259601E0,-0E0,8.294375E-1,1.9529693E-8,-1.486146E0,1.01288E1,-3.1622776E-1,7.9833764E-1,-0E0,-3.23181E-2,-0E0,9.942256E-3,-4.980404E-3,-1.1989617E-2,-0E0,-0E0,3.203063E-2,3.49066E-2,-0E0],"split_indices":[49,36,53,31,39,0,18,41,66,67,43,42,0,0,0,0,0,0,0,0,0,0,0],"split_type":[0,0,0,0,0,0,0,0,0,0,0,0,0,0,0,0,0,0,0,0,0,0,0],"sum_hessian":[3.0572562E2,2.322539E2,7.347171E1,1.6470415E2,6.754976E1,1.2740529E1,6.0731182E1,1.2169619E2,4.3007954E1,2.0759706E1,4.6790054E1,5.6576824E1,4.1543593E0,8.907176E1,3.262443E1,2.8958406E1,1.4049547E1,1.0852829E1,9.906878E0,5.89874E0,4.089131E1,5.3569275E1,3.0075483E0],"tree_param":{"num_deleted":"0","num_feature":"75","num_nodes":"23","size_leaf_vector":"1"}},{"base_weights":[-2.1432885E-3,-3.8093096E-1,1.546213E-1,-0E0,-6.5615624E-1,-2.3393913E-1,3.3138785E-1,-8.10709E-1,-0E0,-4.7736785E-1,-0E0,-0E0,4.5566764E-1,-0E0,-4.2512942E-2,-0E0,-3.208774E-2,-1.8365908E-2,7.930641E-3,2.7342597E-2,-0E0],"categories":[],"categories_nodes":[],"categories_segments":[],"categories_sizes":[],"default_left":[0,0,0,0,0,0,0,0,0,0,0,0,0,0,0,0,0,0,0,0,0],"id":26,"left_children":[1,3,5,-1,7,9,11,13,-1,15,-1,17,19,-1,-1,-1,-1,-1,-1,-1,-1],"loss_changes":[2.1018377E1,1.3098925E1,1.6144144E1,0E0,9.876213E0,6.53047E0,9.022839E0,6.447136E0,0E0,4.3674507E0,0E0,4.581562E0,1.1291708E1,0E0,0E0,0E0,0E0,0E0,0E0,0E0,0E0],"parents":[2147483647,0,0,1,1,2,2,4,4,5,5,6,6,7,7,9,9,11,11,12,12],"right_children":[2,4,6,-1,8,10,12,14,-1,16,-1,18,20,-1,-1,-1,-1,-1,-1,-1,-1],"split_conditions":[2.3416628E-3,-8.142832E-2,2E0,-0E0,2.0237966E-2,4.9739382E-1,5.0761276E-1,5.5555556E-2,-0E0,7.794318E-1,-0E0,2.6280774E-2,5.581685E-1,-0E0,-4.2512942E-2,-0E0,-3.208774E-2,-1.8365908E-2,7.930641E-3,2.7342597E-2,-0E0],"split_indices":[50,55,11,0,49,35,71,74,0,19,0,49,65,0,0,0,0,0,0,0,0],"split_type":[0,0,0,0,0,0,0,0,0,0,0,0,0,0,0,0,0,0,0,0,0],"sum_hessian":[3.030679E2,1.00271515E2,2.0279639E2,4.241095E1,5.786056E1,4.7686996E1,1.5510939E2,4.9620495E1,8.240069E0,3.2821712E1,1.4865283E1,3.4134377E1,1.2097501E2,3.4188182E0,4.6201675E1,1.2118433E1,2.070328E1,1.5300382E1,1.8833994E1,1.0458599E2,1.6389019E1],"tree_param":{"num_deleted":"0","num_feature":"75","num_nodes":"21","size_leaf_vector":"1"}},{"base_weights":[-2.4821502E-3,-2.7294362E-1,1.9813089E-1,-6.214719E-1,6.195702E-2,-2.4682917E-1,3.9188173E-1,-0E0,-8.453222E-1,2.8239062E-1,-2.1134852E-1,-5.2261436E-1,-0E0,5.542766E-1,-0E0,-0E0,-4.4080622E-2,-0E0,2.2137424E-2,-0E0,-1.6222917E-2,-0E0,-3.2422256E-2,2.9470138E-2,-0E0,-1.2380878E-2,2.684961E-3],"categories":[],"categories_nodes":[],"categories_segments":[],"categories_sizes":[],"default_left":[0,0,0,0,0,0,0,0,0,0,0,0,0,0,0,0,0,0,0,0,0,0,0,0,0,0,0],"id":27,"left_children":[1,3,5,7,9,11,13,-1,15,17,19,21,-1,23,25,-1,-1,-1,-1,-1,-1,-1,-1,-1,-1,-1,-1],"loss_changes":[1.7941746E1,2.2963621E1,1.6415348E1,1.7811653E1,5.67414E0,4.4312067E0,1.2025015E1,0E0,9.245785E0,5.3134537E0,1.4747396E0,3.7720222E0,0E0,6.9792175E0,2.0313764E0,0E0,0E0,0E0,0E0,0E0,0E0,0E0,0E0,0E0,0E0,0E0,0E0],"parents":[2147483647,0,0,1,1,2,2,3,3,4,4,5,5,6,6,8,8,9,9,10,10,11,11,13,13,14,14],"right_children":[2,4,6,8,10,12,14,-1,16,18,20,22,-1,24,26,-1,-1,-1,-1,-1,-1,-1,-1,-1,-1,-1,-1],"split_conditions":[2.646356E-2,4.625158E-1,-2.5458753E-1,1.0195883E-1,3.1003685E0,5.4642576E-1,4.8795003E-1,-0E0,3.5306155E-3,6.100928E-1,-6.905534E-1,1.963961E0,-0E0,7.9833764E-1,2E-2,-0E0,-4.4080622E-2,-0E0,2.2137424E-2,-0E0,-1.6222917E-2,-0E0,-3.2422256E-2,2.9470138E-2,-0E0,-1.2380878E-2,2.684961E-3],"split_indices":[34,22,58,25,62,25,63,0,35,44,20,72,0,42,8,0,0,0,0,0,0,0,0,0,0,0,0],"split_type":[0,0,0,0,0,0,0,0,0,0,0,0,0,0,0,0,0,0,0,0,0,0,0,0,0,0,0],"sum_hessian":[3.0002206E2,1.4400066E2,1.5602141E2,7.874654E1,6.525413E1,3.347317E1,1.2254823E2,1.5664772E1,6.3081764E1,5.2836914E1,1.241721E1,1.6238503E1,1.7234669E1,9.560207E1,2.694616E1,2.6897886E0,6.0391975E1,1.574687E1,3.7090046E1,1.2499853E0,1.1167224E1,2.9358437E0,1.3302659E1,9.0987274E1,4.614802E0,1.904308E1,7.9030795E0],"tree_param":{"num_deleted":"0","num_feature":"75","num_nodes":"27","size_leaf_vector":"1"}},{"base_weights":[-1.27535695E-2,2.4670894E-1,-2.562223E-1,-1.05076455E-1,4.9946526E-1,-0E0,-5.244709E-1,-0E0,-2.6309753E-2,-0E0,6.1555755E-1,-1.5150483E-1,3.5204512E-1,-0E0,-7.477938E-1,8.902876E-3,-0E0,3.382424E-2,-0E0,-2.1317266E-2,3.4515713E-3,-0E0,2.358784E-2,-0E0,1.0234717E-2,-4.469472E-2,-0E0],"categories":[],"categories_nodes":[],"categories_segments":[],"categories_sizes":[],"default_left":[0,0,0,0,0,0,0,0,0,0,0,0,0,0,0,0,0,0,0,0,0,0,0,0,0,0,0],"id":28,"left_children":[1,3,5,7,9,11,13,15,-1,-1,17,19,21,23,25,-1,-1,-1,-1,-1,-1,-1,-1,-1,-1,-1,-1],"loss_changes":[2.0002274E1,1.5914896E1,1.3114056E1,6.9683046E0,8.556332E0,6.0597515E0,1.5905857E1,1.0686148E0,0E0,0E0,8.528622E0,8.363676E0,3.9039254E0,1.1158522E0,1.4726036E1,0E0,0E0,0E0,0E0,0E0,0E0,0E0,0E0,0E0,0E0,0E0,0E0],"parents":[2147483647,0,0,1,1,2,2,3,3,4,4,5,5,6,6,7,7,10,10,11,11,12,12,13,13,14,14],"right_children":[2,4,6,8,10,12,14,16,-1,-1,18,20,22,24,26,-1,-1,-1,-1,-1,-1,-1,-1,-1,-1,-1,-1],"split_conditions":[2.9352481E0,1.5519953E0,3.3158284E-1,9.523654E-5,5.99403E-1,7.599814E-1,-6.3090384E-1,2.8073695E-1,-2.6309753E-2,-0E0,6.704282E-1,6E0,1.960095E0,3.2754767E-1,3.559026E-2,8.902876E-3,-0E0,3.382424E-2,-0E0,-2.1317266E-2,3.4515713E-3,-0E0,2.358784E-2,-0E0,1.0234717E-2,-4.469472E-2,-0E0],"split_indices":[15,21,2,51,44,36,55,31,0,0,26,11,56,22,49,0,0,0,0,0,0,0,0,0,0,0,0],"split_type":[0,0,0,0,0,0,0,0,0,0,0,0,0,0,0,0,0,0,0,0,0,0,0,0,0,0,0],"sum_hessian":[2.9619095E2,1.2674033E2,1.6945062E2,4.1536346E1,8.520399E1,8.863567E1,8.081496E1,2.6938225E1,1.4598122E1,9.803262E0,7.540073E1,6.2727127E1,2.5908545E1,1.7491266E1,6.332369E1,2.0377136E1,6.5610876E0,6.95496E1,5.851125E0,3.855444E1,2.4172688E1,2.3257499E0,2.3582794E1,3.4039378E0,1.4087329E1,5.2166008E1,1.1157681E1],"tree_param":{"num_deleted":"0","num_feature":"75","num_nodes":"27","size_leaf_vector":"1"}},{"base_weights":[-0E0,-3.2264385E-1,2.532791E-1,-5.675099E-1,-0E0,-1.3833801E-1,4.0387255E-1,-0E0,-7.922918E-1,2.3731843E-1,-1.6956858E-1,-3.9019874E-1,-0E0,5.040273E-1,-0E0,-0E0,-4.241052E-2,1.8202774E-2,-0E0,-1.6553981E-2,-0E0,-0E0,-3.0207954E-2,-0E0,2.8500818E-2,-1.4530813E-2,-0E0],"categories":[],"categories_nodes":[],"categories_segments":[],"categories_sizes":[],"default_left":[0,0,0,0,0,0,0,0,0,0,0,0,0,0,0,0,0,0,0,0,0,0,0,0,0,0,0],"id":29,"left_children":[1,3,5,7,9,11,13,-1,15,17,19,21,-1,23,25,-1,-1,-1,-1,-1,-1,-1,-1,-1,-1,-1,-1],"loss_changes":[2.6205465E1,1.465354E1,1.3061285E1,1.4969406E1,3.2540007E0,4.5162935E0,9.122112E0,0E0,7.4995804E0,3.6052163E0,2.2462559E0,6.046466E0,0E0,8.387802E0,1.7335713E0,0E0,0E0,0E0,0E0,0E0,0E0,0E0,0E0,0E0,0E0,0E0,0E0],"parents":[2147483647,0,0,1,1,2,2,3,3,4,4,5,5,6,6,8,8,9,9,10,10,11,11,13,13,14,14],"right_children":[2,4,6,8,10,12,14,-1,16,18,20,22,-1,24,26,-1,-1,-1,-1,-1,-1,-1,-1,-1,-1,-1,-1],"split_conditions":[8.703883E-2,2.3570226E-1,5E0,5.2463405E-2,-1.0174801E0,9.022024E-1,7.3903966E-1,-0E0,4.2558634E-1,7.3950326E-1,9.760437E-1,-6.892055E-1,-0E0,1E0,4.1729817E0,-0E0,-4.241052E-2,1.8202774E-2,-0E0,-1.6553981E-2,-0E0,-0E0,-3.0207954E-2,-0E0,2.8500818E-2,-1.4530813E-2,-0E0],"split_indices":[58,53,61,2,32,18,43,0,56,42,18,26,0,16,47,0,0,0,0,0,0,0,0,0,0,0,0],"split_type":[0,0,0,0,0,0,0,0,0,0,0,0,0,0,0,0,0,0,0,0,0,0,0,0,0,0,0],"sum_hessian":[2.9964514E2,1.3440526E2,1.652399E2,8.244945E1,5.1955807E1,3.0728125E1,1.3451176E2,2.0970633E1,6.1478813E1,3.424731E1,1.7708496E1,2.5138807E1,5.5893173E0,1.18840065E2,1.5671707E1,6.667702E0,5.481111E1,3.1158182E1,3.089129E0,1.4996331E1,2.712165E0,7.120641E0,1.8018166E1,1.6193869E1,1.02646194E2,8.658607E0,7.0131E0],"tree_param":{"num_deleted":"0","num_feature":"75","num_nodes":"27","size_leaf_vector":"1"}},{"base_weights":[-0E0,-2.005856E-1,2.1345593E-1,2.1227324E-2,-4.47943E-1,-2.2256467E-1,4.1765955E-1,-1.8851039E-1,2.5244159E-1,-0E0,-5.802337E-1,-4.566089E-1,-0E0,6.256011E-1,-0E0,-0E0,-2.0807812E-2,1.775507E-2,-0E0,-0E0,-3.096602E-2,-2.8663626E-2,-0E0,3.427779E-2,-0E0,-1.1831169E-2,-0E0],"categories":[],"categories_nodes":[],"categories_segments":[],"categories_sizes":[],"default_left":[0,0,0,0,0,0,0,0,0,0,0,0,0,0,0,0,0,0,0,0,0,0,0,0,0,0,0],"id":30,"left_children":[1,3,5,7,9,11,13,15,17,-1,19,21,-1,23,25,-1,-1,-1,-1,-1,-1,-1,-1,-1,-1,-1,-1],"loss_changes":[1.3478975E1,1.3410847E1,1.487167E1,5.120011E0,9.386625E0,3.745806E0,1.3528208E1,4.1535745E0,4.302454E0,0E0,6.0048847E0,2.8878698E0,0E0,7.3981667E0,1.5635192E0,0E0,0E0,0E0,0E0,0E0,0E0,0E0,0E0,0E0,0E0,0E0,0E0],"parents":[2147483647,0,0,1,1,2,2,3,3,4,4,5,5,6,6,7,7,8,8,10,10,11,11,13,13,14,14],"right_children":[2,4,6,8,10,12,14,16,18,-1,20,22,-1,24,26,-1,-1,-1,-1,-1,-1,-1,-1,-1,-1,-1,-1],"split_conditions":[3.2138903E-2,-9.7058207E-1,-2.5458753E-1,6.051734E-1,4.1631013E-2,2.186154E-2,3.712174E-1,-6.972172E-1,4.5E0,-0E0,-1.6043956E0,1.6842407E1,-0E0,7.1340066E-1,2.4303256E-2,-0E0,-2.0807812E-2,1.775507E-2,-0E0,-0E0,-3.096602E-2,-2.8663626E-2,-0E0,3.427779E-2,-0E0,-1.1831169E-2,-0E0],"split_indices":[34,32,58,44,28,7,63,65,21,0,4,61,0,25,49,0,0,0,0,0,0,0,0,0,0,0,0],"split_type":[0,0,0,0,0,0,0,0,0,0,0,0,0,0,0,0,0,0,0,0,0,0,0,0,0,0,0],"sum_hessian":[2.974509E2,1.6830411E2,1.2914677E2,7.5579765E1,9.272434E1,2.788967E1,1.0125711E2,2.1644632E1,5.393513E1,1.3455965E1,7.926838E1,1.7279533E1,1.0610136E1,7.4380066E1,2.6877043E1,4.2129936E0,1.7431639E1,4.9291916E1,4.643213E0,5.5889125E0,7.367947E1,1.3378818E1,3.9007158E0,6.657915E1,7.800919E0,1.5237169E1,1.1639873E1],"tree_param":{"num_deleted":"0","num_feature":"75","num_nodes":"27","size_leaf_vector":"1"}},{"base_weights":[-0E0,-3.6658257E-1,1.8759254E-1,-6.808239E-1,-0E0,-2.5454449E-2,4.0107206E-1,-8.651952E-1,-0E0,-1.3705596E-2,1.3847551E-1,1.364313E-1,-2.9973125E-1,5.447309E-1,-2.1068406E-1,-0E0,-4.432909E-2,1.6174182E-2,-0E0,-0E0,1.6738597E-2,-2.5593162E-2,-0E0,3.1842332E-2,-0E0,-1.607638E-2,-0E0],"categories":[],"categories_nodes":[],"categories_segments":[],"categories_sizes":[],"default_left":[0,0,0,0,0,0,0,0,0,0,0,0,0,0,0,0,0,0,0,0,0,0,0,0,0,0,0],"id":31,"left_children":[1,3,5,7,9,11,13,15,-1,-1,17,19,21,23,25,-1,-1,-1,-1,-1,-1,-1,-1,-1,-1,-1,-1],"loss_changes":[2.1734583E1,1.21871395E1,1.3256765E1,1.0659365E1,2.6408117E0,6.18543E0,1.53326645E1,5.5589027E0,0E0,0E0,3.3223052E0,4.409731E0,7.9023895E0,1.2015858E1,1.1096122E0,0E0,0E0,0E0,0E0,0E0,0E0,0E0,0E0,0E0,0E0,0E0,0E0],"parents":[2147483647,0,0,1,1,2,2,3,3,4,4,5,5,6,6,7,7,10,10,11,11,12,12,13,13,14,14],"right_children":[2,4,6,8,10,12,14,16,-1,-1,18,20,22,24,26,-1,-1,-1,-1,-1,-1,-1,-1,-1,-1,-1,-1],"split_conditions":[1.8915359E0,6.209408E-1,1.5236379E-2,7.0710677E-1,7.538419E-2,2.0641677E-1,7.3950326E-1,3.5306155E-3,-0E0,-1.3705596E-2,5.6653625E-1,-1.6795537E-2,4.9878374E-1,5.2976763E-1,1.5E-2,-0E0,-4.432909E-2,1.6174182E-2,-0E0,-0E0,1.6738597E-2,-2.5593162E-2,-0E0,3.1842332E-2,-0E0,-1.607638E-2,-0E0],"split_indices":[21,64,53,26,40,2,42,35,0,0,2,31,20,65,8,0,0,0,0,0,0,0,0,0,0,0,0],"split_type":[0,0,0,0,0,0,0,0,0,0,0,0,0,0,0,0,0,0,0,0,0,0,0,0,0,0,0],"sum_hessian":[3.052682E2,9.4416885E1,2.108513E2,4.685461E1,4.7562275E1,9.020648E1,1.2064482E2,3.960043E1,7.2541823E0,1.1239777E1,3.63225E1,4.0634506E1,4.957197E1,1.0959352E2,1.1051298E1,1.2499499E0,3.835048E1,2.6118877E1,1.0203621E1,7.824008E0,3.2810497E1,3.5263664E1,1.430831E1,9.428389E1,1.5309632E1,7.8324895E0,3.2188087E0],"tree_param":{"num_deleted":"0","num_feature":"75","num_nodes":"27","size_leaf_vector":"1"}},{"base_weights":[-0E0,-2.7962306E-1,1.493842E-1,-0E0,-5.865399E-1,-4.135315E-2,4.3466452E-1,2.7768514E-1,-4.1773394E-2,-7.242702E-1,-0E0,-3.1206006E-1,1.3042559E-1,5.250622E-1,-0E0,1.8997202E-2,-0E0,-1.4078929E-2,-0E0,-0E0,-3.6691375E-2,-2.8143004E-2,-0E0,-9.7047066E-4,1.6348967E-2,-0E0,2.8523963E-2],"categories":[],"categories_nodes":[],"categories_segments":[],"categories_sizes":[],"default_left":[0,0,0,0,0,0,0,0,0,0,0,0,0,0,0,0,0,0,0,0,0,0,0,0,0,0,0],"id":32,"left_children":[1,3,5,7,9,11,13,15,17,19,-1,21,23,25,-1,-1,-1,-1,-1,-1,-1,-1,-1,-1,-1,-1,-1],"loss_changes":[1.3192169E1,1.3339441E1,1.4582354E1,2.3181694E0,8.473993E0,7.197985E0,5.5285454E0,2.2584698E0,2.4346256E0,3.4294262E0,0E0,1.0350607E1,4.6689878E0,5.0123787E0,0E0,0E0,0E0,0E0,0E0,0E0,0E0,0E0,0E0,0E0,0E0,0E0,0E0],"parents":[2147483647,0,0,1,1,2,2,3,3,4,4,5,5,6,6,7,7,8,8,9,9,11,11,12,12,13,13],"right_children":[2,4,6,8,10,12,14,16,18,20,-1,22,24,26,-1,-1,-1,-1,-1,-1,-1,-1,-1,-1,-1,-1,-1],"split_conditions":[1.8505912E-2,-1.4756242E0,-1.428464E-1,2.8904808E-1,8.4056693E-1,8.028885E-1,3.3562016E-1,2.0194883E1,1.3662601E1,4.1666666E-1,-0E0,6.0085106E-1,6.8779795E-5,-9.3094933E-1,-0E0,1.8997202E-2,-0E0,-1.4078929E-2,-0E0,-0E0,-3.6691375E-2,-2.8143004E-2,-0E0,-9.7047066E-4,1.6348967E-2,-0E0,2.8523963E-2],"split_indices":[34,4,46,35,43,74,55,27,27,24,0,73,8,3,0,0,0,0,0,0,0,0,0,0,0,0,0],"split_type":[0,0,0,0,0,0,0,0,0,0,0,0,0,0,0,0,0,0,0,0,0,0,0,0,0,0,0],"sum_hessian":[2.956979E2,1.0075384E2,1.9494408E2,4.6492733E1,5.4261105E1,1.04224976E2,9.071909E1,1.9647114E1,2.6845617E1,4.8439354E1,5.82175E0,5.626977E1,4.7955204E1,7.9205696E1,1.1513404E1,1.8205473E1,1.4416422E0,1.8423828E1,8.421789E0,2.1060486E0,4.6333305E1,3.745775E1,1.8812021E1,1.0648608E1,3.73066E1,8.220679E0,7.0985016E1],"tree_param":{"num_deleted":"0","num_feature":"75","num_nodes":"27","size_leaf_vector":"1"}},{"base_weights":[-0E0,-2.0436573E-1,2.8935224E-1,-3.9839834E-1,1.2416155E-1,-1.9037232E-1,4.4375697E-1,-0E0,-6.662761E-1,-1.4987244E-1,3.6728808E-1,-3.8798162E-1,-0E0,-0E0,5.568884E-1,-1.009804E-2,1.7594166E-2,-0E0,-3.633491E-2,-0E0,-1.32882865E-2,2.5710702E-2,-0E0,-0E0,-2.3215326E-2,3.0703537E-2,-0E0],"categories":[],"categories_nodes":[],"categories_segments":[],"categories_sizes":[],"default_left":[0,0,0,0,0,0,0,0,0,0,0,0,0,0,0,0,0,0,0,0,0,0,0,0,0,0,0],"id":33,"left_children":[1,3,5,7,9,11,13,15,17,19,21,23,-1,-1,25,-1,-1,-1,-1,-1,-1,-1,-1,-1,-1,-1,-1],"loss_changes":[1.8481274E1,1.4602673E1,1.24105015E1,1.4473204E1,6.360487E0,2.0977042E0,8.427551E0,5.8759203E0,9.175484E0,9.875399E-1,4.9415054E0,1.5694039E0,0E0,0E0,7.068165E0,0E0,0E0,0E0,0E0,0E0,0E0,0E0,0E0,0E0,0E0,0E0,0E0],"parents":[2147483647,0,0,1,1,2,2,3,3,4,4,5,5,6,6,7,7,8,8,9,9,10,10,11,11,14,14],"right_children":[2,4,6,8,10,12,14,16,18,20,22,24,-1,-1,26,-1,-1,-1,-1,-1,-1,-1,-1,-1,-1,-1,-1],"split_conditions":[1.9458538E-2,8.3679146E-1,2.408319E0,2.2038927E0,-1.1111111E-1,7.615773E0,2E0,2.32379E0,2.8612206E-2,-8.332229E-1,4.1995803E-1,3.17288E-3,-0E0,-0E0,8.536902E-1,-1.009804E-2,1.7594166E-2,-0E0,-3.633491E-2,-0E0,-1.32882865E-2,2.5710702E-2,-0E0,-0E0,-2.3215326E-2,3.0703537E-2,-0E0],"split_indices":[7,36,39,47,73,5,11,5,33,45,60,10,0,0,52,0,0,0,0,0,0,0,0,0,0,0,0],"split_type":[0,0,0,0,0,0,0,0,0,0,0,0,0,0,0,0,0,0,0,0,0,0,0,0,0,0,0],"sum_hessian":[2.9464755E2,1.7616295E2,1.1848461E2,1.25429886E2,5.0733063E1,1.51532345E1,1.03331375E2,5.414292E1,7.1286964E1,9.452668E0,4.1280396E1,1.0301298E1,4.8519363E0,1.4045489E1,8.928589E1,3.6833965E1,1.7308956E1,4.97875E0,6.630821E1,1.2278645E0,8.224804E0,3.0101696E1,1.1178699E1,1.0696955E0,9.231603E0,7.937963E1,9.906257E0],"tree_param":{"num_deleted":"0","num_feature":"75","num_nodes":"27","size_leaf_vector":"1"}},{"base_weights":[-0E0,1.996298E-1,-1.7814693E-1,4.5594132E-1,-0E0,-4.6894106E-1,3.2625027E-2,-0E0,5.541903E-1,-4.4548172E-1,1.6636568E-1,-6.70798E-1,-0E0,-1.6917327E-1,2.5163767E-1,2.889931E-2,-0E0,-0E0,-2.9674789E-2,-0E0,1.910051E-2,-0E0,-4.19388E-2,-1.4455424E-2,-0E0,2.186839E-2,-0E0],"categories":[],"categories_nodes":[],"categories_segments":[],"categories_sizes":[],"default_left":[0,0,0,0,0,0,0,0,0,0,0,0,0,0,0,0,0,0,0,0,0,0,0,0,0,0,0],"id":34,"left_children":[1,3,5,7,9,11,13,-1,15,17,19,21,-1,23,25,-1,-1,-1,-1,-1,-1,-1,-1,-1,-1,-1,-1],"loss_changes":[1.0925911E1,9.786154E0,1.4929489E1,5.3837376E0,7.621393E0,1.2075544E1,5.416325E0,0E0,3.9974785E0,4.8062096E0,4.506987E0,1.1497612E1,0E0,2.1347902E0,6.311027E0,0E0,0E0,0E0,0E0,0E0,0E0,0E0,0E0,0E0,0E0,0E0,0E0],"parents":[2147483647,0,0,1,1,2,2,3,3,4,4,5,5,6,6,8,8,9,9,10,10,11,11,13,13,14,14],"right_children":[2,4,6,8,10,12,14,-1,16,18,20,22,-1,24,26,-1,-1,-1,-1,-1,-1,-1,-1,-1,-1,-1,-1],"split_conditions":[2.9352481E0,4.3794394E-1,7.352489E-1,1.8257419E0,3.783333E-3,5.163978E-1,2.0833333E0,-0E0,7.8143895E-1,-1.924563E-1,3E0,-3.999313E-1,-0E0,2.3664198E0,3.75E0,2.889931E-2,-0E0,-0E0,-2.9674789E-2,-0E0,1.910051E-2,-0E0,-4.19388E-2,-1.4455424E-2,-0E0,2.186839E-2,-0E0],"split_indices":[15,57,74,39,50,9,24,0,43,31,5,31,0,12,21,0,0,0,0,0,0,0,0,0,0,0,0],"split_type":[0,0,0,0,0,0,0,0,0,0,0,0,0,0,0,0,0,0,0,0,0,0,0,0,0,0,0],"sum_hessian":[2.9200412E2,1.19781105E2,1.72223E2,6.2285004E1,5.7496105E1,8.40646E1,8.81584E1,5.696783E0,5.6588223E1,2.2608692E1,3.4887413E1,6.3015533E1,2.1049065E1,2.719837E1,6.0960033E1,5.5145668E1,1.4425508E0,3.9374514E0,1.8671242E1,9.51803E0,2.536938E1,1.6786814E1,4.6228718E1,2.4318214E1,2.8801548E0,4.0507843E1,2.0452188E1],"tree_param":{"num_deleted":"0","num_feature":"75","num_nodes":"27","size_leaf_vector":"1"}},{"base_weights":[-1.4443047E-2,-1.09447464E-1,4.0034506E-1,-3.545144E-1,-0E0,-0E0,2.7648967E-2,-5.8263993E-1,-0E0,2.0901708E-1,-1.8746716E-1,-3.674368E-2,-0E0,9.303952E-3,-1.6125333E-2,1.7854035E-2,-4.210126E-3,-2.5043784E-2,-0E0],"categories":[],"categories_nodes":[],"categories_segments":[],"categories_sizes":[],"default_left":[0,0,0,0,0,0,0,0,0,0,0,0,0,0,0,0,0,0,0],"id":35,"left_children":[1,3,5,7,9,-1,-1,11,13,15,17,-1,-1,-1,-1,-1,-1,-1,-1],"loss_changes":[1.0006719E1,9.239286E0,3.477489E0,8.467488E0,7.628811E0,0E0,0E0,9.68004E0,3.731865E0,8.025846E0,8.419708E0,0E0,0E0,0E0,0E0,0E0,0E0,0E0,0E0],"parents":[2147483647,0,0,1,1,2,2,3,3,4,4,7,7,8,8,9,9,10,10],"right_children":[2,4,6,8,10,-1,-1,12,14,16,18,-1,-1,-1,-1,-1,-1,-1,-1],"split_conditions":[4.2426407E-2,1.9138639E0,1.4085904E-1,4.1904245E-3,3.2539022E0,-0E0,2.7648967E-2,1.3239879E1,3.3333334E-1,7.142801E-1,4.5531353E-1,-3.674368E-2,-0E0,9.303952E-3,-1.6125333E-2,1.7854035E-2,-4.210126E-3,-2.5043784E-2,-0E0],"split_indices":[49,21,70,50,21,0,0,27,53,2,19,0,0,0,0,0,0,0,0],"split_type":[0,0,0,0,0,0,0,0,0,0,0,0,0,0,0,0,0,0,0],"sum_hessian":[2.9524628E2,2.6233005E2,3.291623E1,8.983947E1,1.7249057E2,1.258607E1,2.033016E1,5.2163574E1,3.7675896E1,9.487963E1,7.761094E1,4.0861835E1,1.1301739E1,2.7820133E1,9.855763E0,7.6655334E1,1.8224302E1,3.1110374E1,4.650057E1],"tree_param":{"num_deleted":"0","num_feature":"75","num_nodes":"19","size_leaf_vector":"1"}},{"base_weights":[-0E0,-1.3330378E-1,3.035377E-1,-0E0,-4.4261026E-1,-0E0,4.7608572E-1,2.7781233E-1,-1.9157302E-1,-7.549238E-1,-0E0,-1.1716104E-2,-0E0,-0E0,6.150819E-1,-0E0,2.0755906E-2,-2.5086876E-2,-0E0,-0E0,-4.291228E-2,3.173551E-2,-0E0],"categories":[],"categories_nodes":[],"categories_segments":[],"categories_sizes":[],"default_left":[0,0,0,0,0,0,0,0,0,0,0,0,0,0,0,0,0,0,0,0,0,0,0],"id":36,"left_children":[1,3,5,7,9,11,13,15,17,19,-1,-1,-1,-1,21,-1,-1,-1,-1,-1,-1,-1,-1],"loss_changes":[1.232312E1,9.068766E0,8.616801E0,9.122829E0,7.083663E0,1.0074903E0,6.411215E0,6.387196E0,8.423278E0,4.028723E0,0E0,0E0,0E0,0E0,3.416809E0,0E0,0E0,0E0,0E0,0E0,0E0,0E0,0E0],"parents":[2147483647,0,0,1,1,2,2,3,3,4,4,5,5,6,6,7,7,8,8,9,9,14,14],"right_children":[2,4,6,8,10,12,14,16,18,20,-1,-1,-1,-1,22,-1,-1,-1,-1,-1,-1,-1,-1],"split_conditions":[2.4494898E-2,4.1995803E-1,1.8650373E-2,-1.4756242E0,1.5368345E-1,7.6890576E-1,-2.2416148E-1,5.602719E-1,6.805908E-1,1.4230992E-1,-0E0,-1.1716104E-2,-0E0,-0E0,7.9833764E-1,-0E0,2.0755906E-2,-2.5086876E-2,-0E0,-0E0,-4.291228E-2,3.173551E-2,-0E0],"split_indices":[49,60,34,4,26,71,53,44,40,62,0,0,0,0,42,0,0,0,0,0,0,0,0],"split_type":[0,0,0,0,0,0,0,0,0,0,0,0,0,0,0,0,0,0,0,0,0,0,0],"sum_hessian":[2.9052347E2,2.0841037E2,8.2113106E1,1.5193588E2,5.6474483E1,1.6410528E1,6.5702576E1,6.0634045E1,9.130184E1,2.5547602E1,3.0926882E1,6.7231264E0,9.687402E0,1.323871E1,5.2463867E1,9.30378E0,5.1330265E1,3.3237278E1,5.806456E1,6.1022825E0,1.9445318E1,4.9765816E1,2.6980522E0],"tree_param":{"num_deleted":"0","num_feature":"75","num_nodes":"23","size_leaf_vector":"1"}},{"base_weights":[-0E0,-1.6864453E-1,2.2777241E-1,-3.2874542E-1,8.240345E-2,-6.198004E-2,3.4846953E-1,-5.326579E-1,-0E0,3.8301444E-1,-0E0,-3.0662528E-1,-0E0,4.555455E-1,-0E0,-0E0,-2.8985532E-2,1.24444915E-2,-6.3478393E-3,-0E0,2.7036065E-2,-1.16602555E-2,-0E0,-0E0,-1.9399695E-2,-0E0,2.6694776E-2],"categories":[],"categories_nodes":[],"categories_segments":[],"categories_sizes":[],"default_left":[0,0,0,0,0,0,0,0,0,0,0,0,0,0,0,0,0,0,0,0,0,0,0,0,0,0,0],"id":37,"left_children":[1,3,5,7,9,11,13,15,17,19,21,23,-1,25,-1,-1,-1,-1,-1,-1,-1,-1,-1,-1,-1,-1,-1],"loss_changes":[1.180254E1,9.624531E0,7.0657816E0,1.2294837E1,4.3950596E0,1.6677563E0,7.1134768E0,7.0500126E0,2.8897452E0,5.083123E0,1.7207958E0,1.2337909E0,0E0,6.361452E0,0E0,0E0,0E0,0E0,0E0,0E0,0E0,0E0,0E0,0E0,0E0,0E0,0E0],"parents":[2147483647,0,0,1,1,2,2,3,3,4,4,5,5,6,6,7,7,8,8,9,9,10,10,11,11,13,13],"right_children":[2,4,6,8,10,12,14,16,18,20,22,24,-1,26,-1,-1,-1,-1,-1,-1,-1,-1,-1,-1,-1,-1,-1],"split_conditions":[2E-2,8.6849743E-1,2.408319E0,9.4199085E-1,2.5296965E-1,5E0,6.8776673E-1,-9.445272E-1,3.6437216E0,-2.951287E-1,5.5821648E-8,3.17288E-3,-0E0,1.8302792E-1,-0E0,-0E0,-2.8985532E-2,1.24444915E-2,-6.3478393E-3,-0E0,2.7036065E-2,-1.16602555E-2,-0E0,-0E0,-1.9399695E-2,-0E0,2.6694776E-2],"split_indices":[7,36,39,10,2,47,42,26,39,55,41,10,0,42,0,0,0,0,0,0,0,0,0,0,0,0,0],"split_type":[0,0,0,0,0,0,0,0,0,0,0,0,0,0,0,0,0,0,0,0,0,0,0,0,0,0,0],"sum_hessian":[2.9048218E2,1.722826E2,1.1819956E2,1.2366913E2,4.8613472E1,1.5809654E1,1.0238991E2,8.450236E1,3.9166767E1,2.3061842E1,2.5551632E1,9.184559E0,6.6250963E0,9.021236E1,1.2177552E1,4.808563E0,7.9693794E1,2.595186E1,1.3214908E1,2.6280742E0,2.043377E1,1.8541712E1,7.0099187E0,1.0623943E0,8.122164E0,1.5355159E1,7.48572E1],"tree_param":{"num_deleted":"0","num_feature":"75","num_nodes":"27","size_leaf_vector":"1"}},{"base_weights":[-0E0,-1.6259237E-1,1.7487709E-1,1.6165936E-1,-3.6196968E-1,-2.962321E-1,3.1590348E-1,3.2866144E-1,-0E0,-5.173127E-1,5.7894266E-3,-4.9589294E-1,-0E0,5.0270754E-1,-0E0,2.1630744E-2,-0E0,-3.196266E-2,-0E0,-0E0,-2.8673707E-2,-0E0,2.8959418E-2,4.424985E-3,-8.453373E-3],"categories":[],"categories_nodes":[],"categories_segments":[],"categories_sizes":[],"default_left":[0,0,0,0,0,0,0,0,0,0,0,0,0,0,0,0,0,0,0,0,0,0,0,0,0],"id":38,"left_children":[1,3,5,7,9,11,13,15,-1,17,-1,19,-1,21,23,-1,-1,-1,-1,-1,-1,-1,-1,-1,-1],"loss_changes":[8.852105E0,1.1758715E1,1.1829344E1,2.611856E0,1.2194009E1,3.214309E0,8.78314E0,3.2315965E0,0E0,8.812265E0,0E0,2.4526734E0,0E0,6.387615E0,1.2526317E0,0E0,0E0,0E0,0E0,0E0,0E0,0E0,0E0,0E0,0E0],"parents":[2147483647,0,0,1,1,2,2,3,3,4,4,5,5,6,6,7,7,9,9,11,11,13,13,14,14],"right_children":[2,4,6,8,10,12,14,16,-1,18,-1,20,-1,22,24,-1,-1,-1,-1,-1,-1,-1,-1,-1,-1],"split_conditions":[8.703883E-2,-4.0510154E-1,3.9794126E0,4.082483E0,3.0795021E1,8.397828E-1,-7.775357E-1,1.8618986E1,-0E0,1.7934829E-8,5.7894266E-3,1.4142135E0,-0E0,2.408319E0,7.0845926E-1,2.1630744E-2,-0E0,-3.196266E-2,-0E0,-0E0,-2.8673707E-2,-0E0,2.8959418E-2,4.424985E-3,-8.453373E-3],"split_indices":[58,65,61,5,17,30,32,17,0,41,0,27,0,39,23,0,0,0,0,0,0,0,0,0,0],"split_type":[0,0,0,0,0,0,0,0,0,0,0,0,0,0,0,0,0,0,0,0,0,0,0,0,0],"sum_hessian":[2.9024774E2,1.3777072E2,1.5247704E2,3.7220352E1,1.0055037E2,1.9071098E1,1.3340593E2,2.591358E1,1.1306771E1,8.869062E1,1.1859747E1,1.37077E1,5.363398E0,8.163195E1,5.177398E1,2.3981386E1,1.9321935E0,6.6810036E1,2.1880589E1,1.1779331E0,1.2529767E1,1.3189185E1,6.844277E1,3.4475677E1,1.72983E1],"tree_param":{"num_deleted":"0","num_feature":"75","num_nodes":"25","size_leaf_vector":"1"}},{"base_weights":[-0E0,-2.9055512E-1,1.5296878E-1,-6.684251E-1,-0E0,-2.1614539E-2,3.3401322E-1,-0E0,-7.6114523E-1,2.0744066E-1,-0E0,1.8003426E-1,-3.211028E-1,4.7222108E-1,-1.9360411E-1,-3.9664842E-2,-0E0,-0E0,1.6958138E-2,-1.1249553E-2,-0E0,1.608338E-2,-0E0,-2.4175992E-2,-0E0,2.6865436E-2,-0E0,-1.619691E-2,-0E0],"categories":[],"categories_nodes":[],"categories_segments":[],"categories_sizes":[],"default_left":[0,0,0,0,0,0,0,0,0,0,0,0,0,0,0,0,0,0,0,0,0,0,0,0,0,0,0,0,0],"id":39,"left_children":[1,3,5,7,9,11,13,-1,15,17,19,21,23,25,27,-1,-1,-1,-1,-1,-1,-1,-1,-1,-1,-1,-1,-1,-1],"loss_changes":[1.2428741E1,1.5284477E1,9.281914E0,5.0832024E0,1.5507191E0,7.285491E0,1.2436545E1,0E0,3.9675293E0,2.7785187E0,1.0285251E0,3.3553486E0,7.3533783E0,7.2555676E0,1.3222139E0,0E0,0E0,0E0,0E0,0E0,0E0,0E0,0E0,0E0,0E0,0E0,0E0,0E0,0E0],"parents":[2147483647,0,0,1,1,2,2,3,3,4,4,5,5,6,6,8,8,9,9,10,10,11,11,12,12,13,13,14,14],"right_children":[2,4,6,8,10,12,14,-1,16,18,20,22,24,26,28,-1,-1,-1,-1,-1,-1,-1,-1,-1,-1,-1,-1,-1,-1],"split_conditions":[1.6331774E0,4.0636854E-3,1.5236379E-2,-8.660254E-1,3.3333334E-1,3.5969338E-1,7.3950326E-1,-0E0,2.0351168E1,-5.3935987E-1,5.5226807E-2,6.889364E-1,1E0,5.581685E-1,1.5E-2,-3.9664842E-2,-0E0,-0E0,1.6958138E-2,-1.1249553E-2,-0E0,1.608338E-2,-0E0,-2.4175992E-2,-0E0,2.6865436E-2,-0E0,-1.619691E-2,-0E0],"split_indices":[21,50,53,9,53,69,42,0,72,29,7,22,42,65,8,0,0,0,0,0,0,0,0,0,0,0,0,0,0],"split_type":[0,0,0,0,0,0,0,0,0,0,0,0,0,0,0,0,0,0,0,0,0,0,0,0,0,0,0,0,0],"sum_hessian":[2.7913553E2,7.969017E1,1.9944537E2,4.148757E1,3.82026E1,8.238169E1,1.17063675E2,2.9125574E0,3.8575016E1,2.644492E1,1.1757681E1,3.487598E1,4.750571E1,1.060889E2,1.097478E1,3.5439743E1,3.1352732E0,2.5736356E0,2.3871283E1,8.473911E0,3.28377E0,3.1626928E1,3.2490525E0,4.076379E1,6.74192E0,9.220045E1,1.388845E1,8.143429E0,2.8313513E0],"tree_param":{"num_deleted":"0","num_feature":"75","num_nodes":"29","size_leaf_vector":"1"}},{"base_weights":[-0E0,-2.0247456E-1,1.9596978E-1,-4.147681E-1,-0E0,-9.710358E-3,3.4909463E-1,-6.025037E-1,-0E0,-2.0044063E-1,3.5393777E-1,-3.0405697E-1,1.7583199E-2,4.6664402E-1,-0E0,-0E0,-3.656406E-2,-0E0,-2.766208E-2,2.36904E-2,-0E0,-0E0,-3.0100698E-2,-0E0,1.1381058E-2,-0E0,2.5697859E-2],"categories":[],"categories_nodes":[],"categories_segments":[],"categories_sizes":[],"default_left":[0,0,0,0,0,0,0,0,0,0,0,0,0,0,0,0,0,0,0,0,0,0,0,0,0,0,0],"id":40,"left_children":[1,3,5,7,9,11,13,15,-1,17,19,21,23,25,-1,-1,-1,-1,-1,-1,-1,-1,-1,-1,-1,-1,-1],"loss_changes":[1.2130711E1,9.61491E0,7.3070865E0,9.189999E0,7.196815E0,2.8126047E0,5.4018126E0,1.0566151E1,0E0,6.679962E0,3.556069E0,7.275064E0,1.2887465E0,4.996996E0,0E0,0E0,0E0,0E0,0E0,0E0,0E0,0E0,0E0,0E0,0E0,0E0,0E0],"parents":[2147483647,0,0,1,1,2,2,3,3,4,4,5,5,6,6,7,7,9,9,10,10,11,11,12,12,13,13],"right_children":[2,4,6,8,10,12,14,16,-1,18,20,22,24,26,-1,-1,-1,-1,-1,-1,-1,-1,-1,-1,-1,-1,-1],"split_conditions":[2.3137498E-1,4.625158E-1,1.8529035E-3,4.3405544E-2,1.5545631E1,8.4445214E-1,6E-1,4.2558634E-1,-0E0,3.5848767E-1,9.902375E0,-6.666667E-2,2.20794E0,-3.6081913E-1,-0E0,-0E0,-3.656406E-2,-0E0,-2.766208E-2,2.36904E-2,-0E0,-0E0,-3.0100698E-2,-0E0,1.1381058E-2,-0E0,2.5697859E-2],"split_indices":[58,22,50,34,17,59,63,56,0,36,61,63,5,55,0,0,0,0,0,0,0,0,0,0,0,0,0],"split_type":[0,0,0,0,0,0,0,0,0,0,0,0,0,0,0,0,0,0,0,0,0,0,0,0,0,0,0],"sum_hessian":[2.8563715E2,1.5412784E2,1.315093E2,8.531319E1,6.881466E1,3.671204E1,9.479725E1,6.070018E1,2.4613007E1,3.5380024E1,3.3434635E1,2.0792868E1,1.5919172E1,7.3635956E1,2.1161293E1,1.0298572E1,5.040161E1,2.0318037E1,1.5061986E1,2.5840439E1,7.5941954E0,5.64483E0,1.5148038E1,3.2592945E0,1.2659878E1,5.4039855E0,6.823197E1],"tree_param":{"num_deleted":"0","num_feature":"75","num_nodes":"27","size_leaf_vector":"1"}},{"base_weights":[-0E0,7.91587E-2,-3.9540553E-1,-1.4573956E-1,2.5057968E-1,-0E0,-6.2369585E-1,2.293296E-2,-4.407371E-1,-0E0,4.7003263E-1,-0E0,-7.5730747E-1,-0E0,1.158488E-2,-2.753594E-2,-0E0,-1.0276296E-2,5.689635E-3,-0E0,2.509647E-2,-4.0414914E-2,-0E0],"categories":[],"categories_nodes":[],"categories_segments":[],"categories_sizes":[],"default_left":[0,0,0,0,0,0,0,0,0,0,0,0,0,0,0,0,0,0,0,0,0,0,0],"id":41,"left_children":[1,3,5,7,9,-1,11,13,15,17,19,-1,21,-1,-1,-1,-1,-1,-1,-1,-1,-1,-1],"loss_changes":[1.0270489E1,1.0831764E1,8.184583E0,8.199422E0,1.0756845E1,0E0,6.6056366E0,1.8737237E0,5.995614E0,2.686225E0,5.2521687E0,0E0,4.9702816E0,0E0,0E0,0E0,0E0,0E0,0E0,0E0,0E0,0E0,0E0],"parents":[2147483647,0,0,1,1,2,2,3,3,4,4,6,6,7,7,8,8,9,9,10,10,12,12],"right_children":[2,4,6,8,10,-1,12,14,16,18,20,-1,22,-1,-1,-1,-1,-1,-1,-1,-1,-1,-1],"split_conditions":[6.8776673E-1,1.8939395E-2,-3.8180178E-1,-1.4756242E0,7.304771E-2,-0E0,2.1213202E0,4.635268E-1,7.745967E-1,6.469752E-1,3.3103373E0,-0E0,9.580524E-8,-0E0,1.158488E-2,-2.753594E-2,-0E0,-1.0276296E-2,5.689635E-3,-0E0,2.509647E-2,-4.0414914E-2,-0E0],"split_indices":[42,34,55,4,53,0,27,18,9,74,67,0,41,0,0,0,0,0,0,0,0,0,0],"split_type":[0,0,0,0,0,0,0,0,0,0,0,0,0,0,0,0,0,0,0,0,0,0,0],"sum_hessian":[2.8571555E2,2.3960379E2,4.6111763E1,8.321314E1,1.5639066E2,1.2274941E1,3.383682E1,4.0582264E1,4.2630875E1,7.012021E1,8.627045E1,2.4545686E0,3.1382252E1,1.8703337E1,2.187893E1,3.772442E1,4.906457E0,3.2469276E1,3.7650932E1,2.579646E0,8.36908E1,2.9152464E1,2.2297866E0],"tree_param":{"num_deleted":"0","num_feature":"75","num_nodes":"23","size_leaf_vector":"1"}},{"base_weights":[-1.5577864E-3,-1.3972448E-1,1.9005129E-1,-4.8707137E-1,1.1699684E-2,3.6530575E-1,-0E0,-6.8971837E-1,-0E0,4.502786E-1,-1.5593293E-1,-0E0,4.8490992E-1,1.2625237E-1,-2.4301969E-1,-3.9881885E-2,-0E0,-0E0,2.8740728E-2,-0E0,-1.804854E-2,2.9702434E-2,-0E0,1.2436308E-2,-0E0,-0E0,-2.1785429E-2],"categories":[],"categories_nodes":[],"categories_segments":[],"categories_sizes":[],"default_left":[0,0,0,0,0,0,0,0,0,0,0,0,0,0,0,0,0,0,0,0,0,0,0,0,0,0,0],"id":42,"left_children":[1,3,5,7,9,11,13,15,-1,17,19,-1,21,23,25,-1,-1,-1,-1,-1,-1,-1,-1,-1,-1,-1,-1],"loss_changes":[7.4957957E0,1.4483742E1,5.176649E0,8.830307E0,1.2774037E1,4.9356604E0,2.2263024E0,6.5005875E0,0E0,7.1622286E0,5.1086674E0,0E0,3.9344893E0,1.0537233E0,3.9070554E0,0E0,0E0,0E0,0E0,0E0,0E0,0E0,0E0,0E0,0E0,0E0,0E0],"parents":[2147483647,0,0,1,1,2,2,3,3,4,4,5,5,6,6,7,7,9,9,10,10,12,12,13,13,14,14],"right_children":[2,4,6,8,10,12,14,16,-1,18,20,-1,22,24,26,-1,-1,-1,-1,-1,-1,-1,-1,-1,-1,-1,-1],"split_conditions":[4.4502535E-1,-7.23084E-1,7.5E-1,2.6457513E-2,0E0,3.3333334E-1,-4.7033045E-1,8.167878E-1,-0E0,-8.095238E-1,9.049849E-2,-0E0,-1.0712891E0,1.1460717E1,-1.5621654E0,-3.9881885E-2,-0E0,-0E0,2.8740728E-2,-0E0,-1.804854E-2,2.9702434E-2,-0E0,1.2436308E-2,-0E0,-0E0,-2.1785429E-2],"split_indices":[31,66,59,7,31,44,45,18,0,29,63,0,4,67,4,0,0,0,0,0,0,0,0,0,0,0,0],"split_type":[0,0,0,0,0,0,0,0,0,0,0,0,0,0,0,0,0,0,0,0,0,0,0,0,0,0,0],"sum_hessian":[2.7978036E2,1.8936081E2,9.0419556E1,6.775618E1,1.2160463E2,5.626898E1,3.4150574E1,4.7544147E1,2.0212032E1,4.2912903E1,7.869173E1,7.492129E0,4.8776848E1,1.1826609E1,2.2323967E1,3.7477978E1,1.0066171E1,4.5842633E0,3.832864E1,3.877484E1,3.9916885E1,3.490172E1,1.3875132E1,1.0459433E1,1.367176E0,4.7886415E0,1.7535326E1],"tree_param":{"num_deleted":"0","num_feature":"75","num_nodes":"27","size_leaf_vector":"1"}},{"base_weights":[-1.1230113E-2,1.446719E-1,-2.631702E-1,2.8396899E-1,-1.8234563E-1,-4.7382963E-1,1.7051752E-1,-5.338704E-3,3.866907E-1,-0E0,-5.6885886E-1,-5.7075596E-1,-0E0,2.4571672E-2,-2.7455376E-3,-1.0931513E-2,-0E0,-0E0,2.3471981E-2,-3.2763086E-2,-0E0,-0E0,-2.984405E-2],"categories":[],"categories_nodes":[],"categories_segments":[],"categories_sizes":[],"default_left":[0,0,0,0,0,0,0,0,0,0,0,0,0,0,0,0,0,0,0,0,0,0,0],"id":43,"left_children":[1,3,5,7,9,11,13,15,17,-1,19,21,-1,-1,-1,-1,-1,-1,-1,-1,-1,-1,-1],"loss_changes":[1.2707921E1,8.82918E0,1.5579558E1,7.2678976E0,6.6489153E0,8.327509E0,7.2030826E0,1.0730717E0,7.6381607E0,0E0,3.2837276E0,4.676529E0,0E0,0E0,0E0,0E0,0E0,0E0,0E0,0E0,0E0,0E0,0E0],"parents":[2147483647,0,0,1,1,2,2,3,3,4,4,5,5,6,6,7,7,8,8,10,10,11,11],"right_children":[2,4,6,8,10,12,14,16,18,-1,20,22,-1,-1,-1,-1,-1,-1,-1,-1,-1,-1,-1],"split_conditions":[-9.5051885E-1,6.829615E-1,4.2702485E-2,3.5415634E-3,3.0700117E-1,9.6717393E-1,4.2435092E-1,8.904685E-2,2.409637E-2,-0E0,1.2969949E0,-8.164966E-1,-0E0,2.4571672E-2,-2.7455376E-3,-1.0931513E-2,-0E0,-0E0,2.3471981E-2,-3.2763086E-2,-0E0,-0E0,-2.984405E-2],"split_indices":[32,42,34,49,18,42,57,34,40,0,4,58,0,0,0,0,0,0,0,0,0,0,0],"split_type":[0,0,0,0,0,0,0,0,0,0,0,0,0,0,0,0,0,0,0,0,0,0,0],"sum_hessian":[2.7948615E2,1.5472209E2,1.2476406E2,1.27275085E2,2.7447002E1,9.632089E1,2.8443169E1,1.4456852E1,1.1281823E2,1.2686391E1,1.47606125E1,8.896609E1,7.3548107E0,2.0783552E1,7.659617E0,1.0381795E1,4.075057E0,1.7741411E1,9.507682E1,1.352714E1,1.233472E0,6.7579575E0,8.220813E1],"tree_param":{"num_deleted":"0","num_feature":"75","num_nodes":"23","size_leaf_vector":"1"}},{"base_weights":[-8.04238E-3,-3.3046743E-1,8.939918E-2,-5.175345E-1,1.4625776E-2,-1.8335451E-1,2.784555E-1,-0E0,-6.623166E-1,9.883611E-3,-0E0,-4.866873E-1,5.4628644E-2,3.829913E-1,-9.842186E-4,-3.8935684E-2,-0E0,-3.8617477E-2,-0E0,-0E0,1.0999568E-2,-0E0,2.3768786E-2],"categories":[],"categories_nodes":[],"categories_segments":[],"categories_sizes":[],"default_left":[0,0,0,0,0,0,0,0,0,0,0,0,0,0,0,0,0,0,0,0,0,0,0],"id":44,"left_children":[1,3,5,7,9,11,13,-1,15,-1,-1,17,19,21,-1,-1,-1,-1,-1,-1,-1,-1,-1],"loss_changes":[1.1226699E1,9.9409895E0,1.1906587E1,9.853731E0,9.678681E-1,9.060796E0,7.5886717E0,0E0,6.5360603E0,0E0,0E0,8.490773E0,1.4438661E0,8.016855E0,0E0,0E0,0E0,0E0,0E0,0E0,0E0,0E0,0E0],"parents":[2147483647,0,0,1,1,2,2,3,3,4,4,5,5,6,6,8,8,11,11,12,12,13,13],"right_children":[2,4,6,8,10,12,14,-1,16,-1,-1,18,20,22,-1,-1,-1,-1,-1,-1,-1,-1,-1],"split_conditions":[1.6331774E0,1.6730516E1,7.1538235E-3,2.1213202E0,-4.2791662E-1,2.236068E-1,8.167878E-1,-0E0,2.6779357E-8,9.883611E-3,-0E0,3.951186E-1,3.2052892E-1,1.0856178E0,-9.842186E-4,-3.8935684E-2,-0E0,-3.8617477E-2,-0E0,-0E0,1.0999568E-2,-0E0,2.3768786E-2],"split_indices":[21,72,58,27,32,9,22,0,41,0,0,31,69,28,0,0,0,0,0,0,0,0,0],"split_type":[0,0,0,0,0,0,0,0,0,0,0,0,0,0,0,0,0,0,0,0,0,0,0],"sum_hessian":[2.747296E2,7.829968E1,1.9642992E2,6.3340218E1,1.4959469E1,6.2472713E1,1.339572E2,5.9376187E0,5.74026E1,1.2551676E1,2.407793E0,3.8466286E1,2.400643E1,1.17948715E2,1.6008492E1,4.3082718E1,1.431988E1,2.0031197E1,1.843509E1,5.2292137E0,1.8777216E1,2.2390022E1,9.555869E1],"tree_param":{"num_deleted":"0","num_feature":"75","num_nodes":"23","size_leaf_vector":"1"}},{"base_weights":[-0E0,-2.5349697E-1,9.774923E-2,-3.9864284E-1,-0E0,-3.2197937E-2,2.7364966E-1,-0E0,-5.7775813E-1,-0E0,2.3632407E-1,5.3705927E-2,-4.6590427E-1,-8.777341E-2,4.2758808E-1,-0E0,-3.3897918E-2,-0E0,1.6999142E-2,1.7653845E-2,-4.4701775E-3,-3.035933E-2,-0E0,-1.1505686E-2,-0E0,2.5706686E-2,-0E0],"categories":[],"categories_nodes":[],"categories_segments":[],"categories_sizes":[],"default_left":[0,0,0,0,0,0,0,0,0,0,0,0,0,0,0,0,0,0,0,0,0,0,0,0,0,0,0],"id":45,"left_children":[1,3,5,7,9,11,13,-1,15,-1,17,19,21,23,25,-1,-1,-1,-1,-1,-1,-1,-1,-1,-1,-1,-1],"loss_changes":[7.7327557E0,5.4746437E0,6.863652E0,8.469298E0,1.2920085E0,7.448803E0,9.695745E0,0E0,6.7405834E0,0E0,1.5645984E0,6.3420386E0,5.278117E0,1.0964583E0,6.075264E0,0E0,0E0,0E0,0E0,0E0,0E0,0E0,0E0,0E0,0E0,0E0,0E0],"parents":[2147483647,0,0,1,1,2,2,3,3,4,4,5,5,6,6,8,8,10,10,11,11,12,12,13,13,14,14],"right_children":[2,4,6,8,10,12,14,-1,16,-1,18,20,22,24,26,-1,-1,-1,-1,-1,-1,-1,-1,-1,-1,-1,-1],"split_conditions":[1.6331774E0,1.3603367E1,9.8038346E-2,5E-1,7.551102E-1,3.1003685E0,-2.5458753E-1,-0E0,2.5495098E0,-0E0,-4.5968172E-1,7.228416E0,2.5109758E1,8.544565E-1,4.8795003E-1,-0E0,-3.3897918E-2,-0E0,1.6999142E-2,1.7653845E-2,-4.4701775E-3,-3.035933E-2,-0E0,-1.1505686E-2,-0E0,2.5706686E-2,-0E0],"split_indices":[21,27,33,24,36,62,58,0,72,0,26,27,17,69,63,0,0,0,0,0,0,0,0,0,0,0,0],"split_type":[0,0,0,0,0,0,0,0,0,0,0,0,0,0,0,0,0,0,0,0,0,0,0,0,0,0,0],"sum_hessian":[2.78629E2,7.97439E1,1.9888509E2,6.098266E1,1.8761238E1,9.162032E1,1.0726476E2,1.1603662E1,4.9378994E1,5.2191157E0,1.3542122E1,6.743656E1,2.4183764E1,1.708767E1,9.017709E1,7.851515E0,4.152748E1,1.1600187E0,1.2382103E1,3.4499615E1,3.2936947E1,2.0819168E1,3.3645952E0,1.2270568E1,4.817102E0,7.220078E1,1.7976316E1],"tree_param":{"num_deleted":"0","num_feature":"75","num_nodes":"27","size_leaf_vector":"1"}},{"base_weights":[-0E0,-1.1646046E-1,2.3747231E-1,-0E0,-4.4436485E-1,3.6674184E-1,-1.061589E-3,3.1124997E-1,-1.4709838E-1,-6.4299566E-1,-0E0,-0E0,5.504377E-1,-0E0,2.0934802E-2,-2.4121564E-2,-0E0,-0E0,-3.8194433E-2,-0E0,2.9895598E-2],"categories":[],"categories_nodes":[],"categories_segments":[],"categories_sizes":[],"default_left":[0,0,0,0,0,0,0,0,0,0,0,0,0,0,0,0,0,0,0,0,0],"id":46,"left_children":[1,3,5,7,9,11,-1,13,15,17,-1,-1,19,-1,-1,-1,-1,-1,-1,-1,-1],"loss_changes":[8.927396E0,8.850781E0,6.7315907E0,7.5284557E0,6.178073E0,8.182378E0,0E0,4.665962E0,6.758052E0,7.4355774E0,0E0,0E0,4.663294E0,0E0,0E0,0E0,0E0,0E0,0E0,0E0,0E0],"parents":[2147483647,0,0,1,1,2,2,3,3,4,4,5,5,7,7,8,8,9,9,12,12],"right_children":[2,4,6,8,10,12,-1,14,16,18,-1,-1,20,-1,-1,-1,-1,-1,-1,-1,-1],"split_conditions":[2.09238E-2,4.0613282E-1,7.5074166E-1,-1.4691377E0,5.990944E-1,2.5823241E-2,-1.061589E-3,1.6195878E-3,5.126908E-1,5.341335E-3,-0E0,-0E0,-4.334607E-1,-0E0,2.0934802E-2,-2.4121564E-2,-0E0,-0E0,-3.8194433E-2,-0E0,2.9895598E-2],"split_indices":[49,60,22,32,26,34,0,49,44,34,0,0,53,0,0,0,0,0,0,0,0],"split_type":[0,0,0,0,0,0,0,0,0,0,0,0,0,0,0,0,0,0,0,0,0],"sum_hessian":[2.8373486E2,1.8081454E2,1.0292031E2,1.3250468E2,4.830986E1,8.7537384E1,1.5382931E1,4.684509E1,8.565959E1,3.300493E1,1.5304929E1,2.7005434E1,6.0531948E1,5.041133E0,4.1803955E1,2.4099981E1,6.1559612E1,4.4317513E0,2.857318E1,5.6837473E0,5.4848198E1],"tree_param":{"num_deleted":"0","num_feature":"75","num_nodes":"21","size_leaf_vector":"1"}},{"base_weights":[-0E0,-1.4318864E-1,2.2046609E-1,2.6798407E-2,-3.3659157E-1,-0E0,3.3986795E-1,-0E0,3.3005485E-1,-0E0,-6.357882E-1,-0E0,4.267356E-1,-1.6426686E-2,5.4891305E-3,2.2397479E-2,-0E0,-1.1751082E-2,1.3254478E-2,-3.9296985E-2,-0E0,-0E0,2.4784872E-2],"categories":[],"categories_nodes":[],"categories_segments":[],"categories_sizes":[],"default_left":[0,0,0,0,0,0,0,0,0,0,0,0,0,0,0,0,0,0,0,0,0,0,0],"id":47,"left_children":[1,3,5,7,9,-1,11,13,15,17,19,-1,21,-1,-1,-1,-1,-1,-1,-1,-1,-1,-1],"loss_changes":[8.970483E0,9.045294E0,5.218344E0,3.4762135E0,1.3895729E1,0E0,4.3517017E0,5.009775E0,2.926465E0,4.8223467E0,1.1545038E1,0E0,4.872259E0,0E0,0E0,0E0,0E0,0E0,0E0,0E0,0E0,0E0,0E0],"parents":[2147483647,0,0,1,1,2,2,3,3,4,4,6,6,7,7,8,8,9,9,10,10,12,12],"right_children":[2,4,6,8,10,-1,12,14,16,18,20,-1,22,-1,-1,-1,-1,-1,-1,-1,-1,-1,-1],"split_conditions":[7.153088E0,-1.4756242E0,3.2988045E-1,7.033906E-1,4.1744643E-1,-0E0,3.3333334E-1,7.7478987E-1,5.709071E0,6.1600626E-1,6.024641E-1,-0E0,1.4779783E0,-1.6426686E-2,5.4891305E-3,2.2397479E-2,-0E0,-1.1751082E-2,1.3254478E-2,-3.9296985E-2,-0E0,-0E0,2.4784872E-2],"split_indices":[39,4,30,44,69,0,64,71,39,54,9,0,56,0,0,0,0,0,0,0,0,0,0],"split_type":[0,0,0,0,0,0,0,0,0,0,0,0,0,0,0,0,0,0,0,0,0,0,0],"sum_hessian":[2.774872E2,1.8431718E2,9.317002E1,7.954276E1,1.0477442E2,1.4344427E1,7.882559E1,5.6636414E1,2.2906345E1,4.793636E1,5.6838062E1,8.4363365E0,7.038925E1,2.7334759E1,2.9301653E1,1.9062815E1,3.843531E0,1.8933077E1,2.9003283E1,4.567932E1,1.115874E1,9.646551E0,6.0742702E1],"tree_param":{"num_deleted":"0","num_feature":"75","num_nodes":"23","size_leaf_vector":"1"}},{"base_weights":[-1.3738087E-2,-3.02282E-1,9.183423E-2,-4.6802545E-1,1.07474305E-1,-2.4567057E-1,2.2882585E-1,-6.24208E-1,-0E0,-0E0,1.2479506E-2,-3.8860935E-1,-0E0,-7.027486E-2,3.6533263E-1,-0E0,-3.847024E-2,-2.6026564E-2,-0E0,-0E0,-1.8465744E-2,2.97459E-2,4.5071368E-4],"categories":[],"categories_nodes":[],"categories_segments":[],"categories_sizes":[],"default_left":[0,0,0,0,0,0,0,0,0,0,0,0,0,0,0,0,0,0,0,0,0,0,0],"id":48,"left_children":[1,3,5,7,9,11,13,15,-1,-1,-1,17,-1,19,21,-1,-1,-1,-1,-1,-1,-1,-1],"loss_changes":[1.0572271E1,1.0185263E1,9.26218E0,1.0496599E1,1.1565456E0,3.342964E0,9.194971E0,1.0007591E1,0E0,0E0,0E0,4.4831634E0,0E0,3.4548793E0,6.8647175E0,0E0,0E0,0E0,0E0,0E0,0E0,0E0,0E0],"parents":[2147483647,0,0,1,1,2,2,3,3,4,4,5,5,6,6,7,7,11,11,13,13,14,14],"right_children":[2,4,6,8,10,12,14,16,-1,-1,-1,18,-1,20,22,-1,-1,-1,-1,-1,-1,-1,-1],"split_conditions":[5.602719E-1,3E0,1E0,4.386581E-2,-1.269982E-2,1.5239913E0,-2.7602622E-1,-5.416583E-1,-0E0,-0E0,1.2479506E-2,7.25E0,-0E0,-6.910233E-1,4.024963E-1,-0E0,-3.847024E-2,-2.6026564E-2,-0E0,-0E0,-1.8465744E-2,2.97459E-2,4.5071368E-4],"split_indices":[44,38,11,49,26,37,70,65,0,0,0,24,0,63,42,0,0,0,0,0,0,0,0],"split_type":[0,0,0,0,0,0,0,0,0,0,0,0,0,0,0,0,0,0,0,0,0,0,0],"sum_hessian":[2.7110864E2,8.8997215E1,1.8211142E2,7.688752E1,1.2109698E1,3.2802834E1,1.493086E2,6.596522E1,1.0922302E1,1.6163068E0,1.0493391E1,2.948752E1,3.315315E0,2.9100594E1,1.2020799E2,1.630837E1,4.9656845E1,2.4486341E1,5.001179E0,1.4924566E1,1.4176028E1,5.1157665E1,6.905032E1],"tree_param":{"num_deleted":"0","num_feature":"75","num_nodes":"23","size_leaf_vector":"1"}},{"base_weights":[-0E0,-2.8968397E-1,1.0132655E-1,2.6195252E-3,-4.3041855E-1,-1.0817158E-1,2.3199007E-1,-5.8305913E-1,-0E0,-4.52548E-1,7.073771E-2,4.5855013E-1,-0E0,-3.3069577E-2,-0E0,-3.435323E-2,-0E0,1.2352565E-2,-0E0,2.9033292E-2,-0E0,4.6125934E-3,-1.09579405E-2],"categories":[],"categories_nodes":[],"categories_segments":[],"categories_sizes":[],"default_left":[0,0,0,0,0,0,0,0,0,0,0,0,0,0,0,0,0,0,0,0,0,0,0],"id":49,"left_children":[1,3,5,-1,7,9,11,13,-1,15,17,19,21,-1,-1,-1,-1,-1,-1,-1,-1,-1,-1],"loss_changes":[9.441151E0,7.579132E0,6.997968E0,0E0,8.135428E0,7.33319E0,1.0558141E1,6.2228794E0,0E0,4.997893E0,1.9161217E0,7.914715E0,2.6265981E0,0E0,0E0,0E0,0E0,0E0,0E0,0E0,0E0,0E0,0E0],"parents":[2147483647,0,0,1,1,2,2,4,4,5,5,6,6,7,7,9,9,10,10,11,11,12,12],"right_children":[2,4,6,-1,8,10,12,14,-1,16,18,20,22,-1,-1,-1,-1,-1,-1,-1,-1,-1,-1],"split_conditions":[1.6331774E0,2.1213202E0,-2.7889955E-1,2.6195252E-3,1.6730516E1,1.17188305E-1,1.5469219E-1,1.1920857E0,-0E0,1.9868836E-1,1.1E1,7.611504E-1,2.9352481E0,-3.3069577E-2,-0E0,-3.435323E-2,-0E0,1.2352565E-2,-0E0,2.9033292E-2,-0E0,4.6125934E-3,-1.09579405E-2],"split_indices":[21,27,9,0,72,33,65,37,0,70,28,19,15,0,0,0,0,0,0,0,0,0,0],"split_type":[0,0,0,0,0,0,0,0,0,0,0,0,0,0,0,0,0,0,0,0,0,0,0],"sum_hessian":[2.7686206E2,7.7328125E1,1.9953392E2,6.9122953E0,7.0415825E1,5.2760387E1,1.4677354E2,5.7939056E1,1.2476772E1,2.8961454E1,2.3798933E1,8.064355E1,6.612999E1,4.9720795E1,8.218262E0,1.4693835E1,1.4267618E1,2.0756062E1,3.0428712E0,6.1314102E1,1.9329443E1,3.4999207E1,3.1130783E1],"tree_param":{"num_deleted":"0","num_feature":"75","num_nodes":"23","size_leaf_vector":"1"}},{"base_weights":[-0E0,-9.55939E-2,3.4548256E-1,-0E0,-4.1301075E-1,-0E0,4.750185E-1,-1.612175E-1,2.7081352E-1,-7.3282033E-1,-0E0,5.6181884E-1,-0E0,-1.8563997E-2,-0E0,-0E0,2.2080531E-2,-0E0,-3.74579E-2,-0E0,2.91063E-2],"categories":[],"categories_nodes":[],"categories_segments":[],"categories_sizes":[],"default_left":[0,0,0,0,0,0,0,0,0,0,0,0,0,0,0,0,0,0,0,0,0],"id":50,"left_children":[1,3,5,7,9,-1,11,13,15,17,-1,19,-1,-1,-1,-1,-1,-1,-1,-1,-1],"loss_changes":[7.897502E0,7.402033E0,3.7350683E0,9.046269E0,4.9775934E0,0E0,2.9522257E0,6.2209535E0,7.597633E0,1.6603851E0,0E0,1.8374653E0,0E0,0E0,0E0,0E0,0E0,0E0,0E0,0E0,0E0],"parents":[2147483647,0,0,1,1,2,2,3,3,4,4,6,6,7,7,8,8,9,9,11,11],"right_children":[2,4,6,8,10,-1,12,14,16,18,-1,20,-1,-1,-1,-1,-1,-1,-1,-1,-1],"split_conditions":[3.6068108E-2,3.9029187E-1,4.5281976E-1,4.049146E-2,4.632629E-1,-0E0,6.8649143E-1,3.3343423E-3,-1.8463723E-1,4.1631013E-2,-0E0,5.105874E-2,-0E0,-1.8563997E-2,-0E0,-0E0,2.2080531E-2,-0E0,-3.74579E-2,-0E0,2.91063E-2],"split_indices":[49,63,54,34,18,0,73,50,73,28,0,35,0,0,0,0,0,0,0,0,0],"split_type":[0,0,0,0,0,0,0,0,0,0,0,0,0,0,0,0,0,0,0,0,0],"sum_hessian":[2.728966E2,2.3505223E2,3.784438E1,1.881441E2,4.6908115E1,5.790831E0,3.2053547E1,1.2048809E2,6.765602E1,1.7623331E1,2.9284782E1,2.953243E1,2.5211155E0,5.234144E1,6.814665E1,1.6778774E1,5.0877243E1,1.4304707E0,1.619286E1,1.9007553E0,2.7631676E1],"tree_param":{"num_deleted":"0","num_feature":"75","num_nodes":"21","size_leaf_vector":"1"}},{"base_weights":[-0E0,2.0191284E-1,-1.00236505E-1,-0E0,4.6555954E-1,-4.1266796E-1,-0E0,2.2773317E-1,-3.6485085E-1,-0E0,6.5855074E-1,-6.4030284E-1,-0E0,3.4418473E-1,-1.5994315E-1,1.7667413E-2,-0E0,-2.5757896E-2,-0E0,-0E0,3.4700263E-2,-3.5910517E-2,-0E0,-0E0,2.4009295E-2,1.13558E-3,-2.1294681E-2],"categories":[],"categories_nodes":[],"categories_segments":[],"categories_sizes":[],"default_left":[0,0,0,0,0,0,0,0,0,0,0,0,0,0,0,0,0,0,0,0,0,0,0,0,0,0,0],"id":51,"left_children":[1,3,5,7,9,11,13,15,17,-1,19,21,-1,23,25,-1,-1,-1,-1,-1,-1,-1,-1,-1,-1,-1,-1],"loss_changes":[6.3927193E0,8.379579E0,8.680883E0,6.5816803E0,8.87391E0,7.828739E0,9.201288E0,2.6797705E0,4.592034E0,0E0,3.9099903E0,6.174183E0,0E0,5.0170765E0,8.22984E0,0E0,0E0,0E0,0E0,0E0,0E0,0E0,0E0,0E0,0E0,0E0,0E0],"parents":[2147483647,0,0,1,1,2,2,3,3,4,4,5,5,6,6,7,7,8,8,10,10,11,11,13,13,14,14],"right_children":[2,4,6,8,10,12,14,16,18,-1,20,22,-1,24,26,-1,-1,-1,-1,-1,-1,-1,-1,-1,-1,-1,-1],"split_conditions":[3.40327E-1,1.9391753E-1,6.522368E-1,7.3401406E-3,-1.1952286E-1,4.8662654E-1,6.194771E-1,5.5943096E-1,3E0,-0E0,3.535534E0,1.693765E-1,-0E0,-7.871068E-2,7.4289513E0,1.7667413E-2,-0E0,-2.5757896E-2,-0E0,-0E0,3.4700263E-2,-3.5910517E-2,-0E0,-0E0,2.4009295E-2,1.13558E-3,-2.1294681E-2],"split_indices":[42,42,54,49,63,20,52,43,38,0,39,4,0,26,67,0,0,0,0,0,0,0,0,0,0,0,0],"split_type":[0,0,0,0,0,0,0,0,0,0,0,0,0,0,0,0,0,0,0,0,0,0,0,0,0,0,0],"sum_hessian":[2.786021E2,1.01104805E2,1.774973E2,5.121426E1,4.989055E1,5.2422012E1,1.25075294E2,2.473786E1,2.64764E1,9.293276E0,4.0597275E1,3.5261658E1,1.7160355E1,4.974072E1,7.533457E1,2.2170961E1,2.566898E0,2.187902E1,4.597379E0,2.7888632E0,3.780841E1,3.2748978E1,2.512683E0,1.2882331E1,3.6858387E1,3.4058434E1,4.1276134E1],"tree_param":{"num_deleted":"0","num_feature":"75","num_nodes":"27","size_leaf_vector":"1"}},{"base_weights":[-0E0,-1.0234823E-1,2.0818041E-1,-3.4345028E-1,-0E0,-0E0,3.3295915E-1,-5.216085E-1,-0E0,3.1725478E-1,-1.7608431E-1,-0E0,4.2629278E-1,-0E0,-3.0212605E-2,2.1272091E-2,-0E0,-1.6634548E-2,4.9712555E-3,2.4769083E-2,-0E0],"categories":[],"categories_nodes":[],"categories_segments":[],"categories_sizes":[],"default_left":[0,0,0,0,0,0,0,0,0,0,0,0,0,0,0,0,0,0,0,0,0],"id":52,"left_children":[1,3,5,7,9,-1,11,13,-1,15,17,-1,19,-1,-1,-1,-1,-1,-1,-1,-1],"loss_changes":[6.0729623E0,6.9744277E0,4.3820944E0,5.1472015E0,8.812144E0,0E0,4.7555885E0,5.45522E0,0E0,5.343533E0,6.3964987E0,0E0,3.6945343E0,0E0,0E0,0E0,0E0,0E0,0E0,0E0,0E0],"parents":[2147483647,0,0,1,1,2,2,3,3,4,4,6,6,7,7,9,9,10,10,12,12],"right_children":[2,4,6,8,10,-1,12,14,-1,16,18,-1,20,-1,-1,-1,-1,-1,-1,-1,-1],"split_conditions":[2.2570597E-2,1.5152795E0,1.8650373E-2,8.778505E-1,2.4950433E0,-0E0,-5.345225E-1,-1.6875589E0,-0E0,5.4398423E-1,2.1110247E-1,-0E0,7.5074166E-1,-0E0,-3.0212605E-2,2.1272091E-2,-0E0,-1.6634548E-2,4.9712555E-3,2.4769083E-2,-0E0],"split_indices":[49,62,34,10,62,0,53,4,0,31,33,0,22,0,0,0,0,0,0,0,0],"split_type":[0,0,0,0,0,0,0,0,0,0,0,0,0,0,0,0,0,0,0,0,0],"sum_hessian":[2.730637E2,1.9101628E2,8.2047424E1,6.734932E1,1.23666954E2,1.6287264E1,6.576016E1,4.268426E1,2.466506E1,5.33412E1,7.032575E1,3.214373E0,6.2545784E1,4.3556E0,3.832866E1,4.7773693E1,5.567508E0,5.9911255E1,1.0414498E1,5.1291477E1,1.1254309E1],"tree_param":{"num_deleted":"0","num_feature":"75","num_nodes":"21","size_leaf_vector":"1"}},{"base_weights":[-0E0,-2.100232E-1,8.902976E-2,4.4750717E-2,-3.998011E-1,3.8720742E-1,-0E0,1.5435169E-2,-0E0,-5.6553006E-1,5.02358E-4,-0E0,5.375264E-1,-3.9888087E-1,7.833165E-2,-0E0,-3.1668264E-2,-0E0,3.0235201E-2,-3.1368285E-2,-0E0,-5.8404393E-3,1.427669E-2],"categories":[],"categories_nodes":[],"categories_segments":[],"categories_sizes":[],"default_left":[0,0,0,0,0,0,0,0,0,0,0,0,0,0,0,0,0,0,0,0,0,0,0],"id":53,"left_children":[1,3,5,7,9,11,13,-1,-1,15,-1,-1,17,19,21,-1,-1,-1,-1,-1,-1,-1,-1],"loss_changes":[5.753952E0,7.775394E0,8.071057E0,2.0239565E0,9.770894E0,5.9334135E0,7.0583115E0,0E0,0E0,5.836155E0,0E0,0E0,5.651766E0,6.677086E0,6.689375E0,0E0,0E0,0E0,0E0,0E0,0E0,0E0,0E0],"parents":[2147483647,0,0,1,1,2,2,3,3,4,4,5,5,6,6,9,9,12,12,13,13,14,14],"right_children":[2,4,6,8,10,12,14,-1,-1,16,-1,-1,18,20,22,-1,-1,-1,-1,-1,-1,-1,-1],"split_conditions":[5.602719E-1,-5.416583E-1,3.40327E-1,-1.4691377E0,4E0,-2.7602622E-1,6.522368E-1,1.5435169E-2,-0E0,5.5681455E-1,5.02358E-4,-0E0,1.992136E-1,4.8662654E-1,1.6666666E0,-0E0,-3.1668264E-2,-0E0,3.0235201E-2,-3.1368285E-2,-0E0,-5.8404393E-3,1.427669E-2],"split_indices":[44,65,42,32,38,70,54,0,0,28,0,0,18,20,68,0,0,0,0,0,0,0,0],"split_type":[0,0,0,0,0,0,0,0,0,0,0,0,0,0,0,0,0,0,0,0,0,0,0],"sum_hessian":[2.6842957E2,8.642571E1,1.8200386E2,2.12625E1,6.5163216E1,5.436956E1,1.2763429E2,9.868494E0,1.1394008E1,5.8314045E1,6.8491673E0,1.0236023E1,4.4133537E1,3.0660887E1,9.6973404E1,6.8329496E0,5.1481094E1,2.237333E0,4.1896202E1,1.9960257E1,1.0700629E1,3.373198E1,6.324143E1],"tree_param":{"num_deleted":"0","num_feature":"75","num_nodes":"23","size_leaf_vector":"1"}},{"base_weights":[-0E0,-2.2394271E-1,9.600569E-2,-0E0,-5.5400467E-1,3.259026E-1,-4.309947E-2,-1.5646994E-1,2.459701E-1,-6.5265435E-1,-0E0,-0E0,5.274926E-1,5.6796476E-2,-4.6708187E-1,-0E0,-1.8954597E-2,-0E0,1.909886E-2,-3.4209073E-2,-0E0,5.1644994E-3,-7.699172E-3,3.157729E-2,-0E0,-0E0,1.0549938E-2,-3.1597223E-2,-0E0],"categories":[],"categories_nodes":[],"categories_segments":[],"categories_sizes":[],"default_left":[0,0,0,0,0,0,0,0,0,0,0,0,0,0,0,0,0,0,0,0,0,0,0,0,0,0,0,0,0],"id":54,"left_children":[1,3,5,7,9,11,13,15,17,19,-1,21,23,25,27,-1,-1,-1,-1,-1,-1,-1,-1,-1,-1,-1,-1,-1,-1],"loss_changes":[6.284832E0,8.551533E0,9.031216E0,2.8250027E0,3.6498594E0,7.511183E0,8.472444E0,2.7789872E0,3.1084244E0,3.1987057E0,0E0,1.065644E0,8.170864E0,2.464597E0,3.6225386E0,0E0,0E0,0E0,0E0,0E0,0E0,0E0,0E0,0E0,0E0,0E0,0E0,0E0,0E0],"parents":[2147483647,0,0,1,1,2,2,3,3,4,4,5,5,6,6,7,7,8,8,9,9,11,11,12,12,13,13,14,14],"right_children":[2,4,6,8,10,12,14,16,18,20,-1,22,24,26,28,-1,-1,-1,-1,-1,-1,-1,-1,-1,-1,-1,-1,-1,-1],"split_conditions":[4.8203135E-1,2.9827586E-1,6.194771E-1,7.414316E-1,9.6026254E-1,1.3022642E-2,7.792388E-1,1.3210784E-1,1.5822381E0,9.7648656E-1,-0E0,3.632794E-1,7.1340066E-1,6.8909383E0,4.7063E-1,-0E0,-1.8954597E-2,-0E0,1.909886E-2,-3.4209073E-2,-0E0,5.1644994E-3,-7.699172E-3,3.157729E-2,-0E0,-0E0,1.0549938E-2,-3.1597223E-2,-0E0],"split_indices":[54,2,52,71,25,49,59,69,24,31,0,18,25,61,25,0,0,0,0,0,0,0,0,0,0,0,0,0,0],"split_type":[0,0,0,0,0,0,0,0,0,0,0,0,0,0,0,0,0,0,0,0,0,0,0,0,0,0,0,0,0],"sum_hessian":[2.7299753E2,7.8155235E1,1.948423E2,4.5547035E1,3.2608196E1,9.1198204E1,1.0364409E2,2.0706158E1,2.4840878E1,2.9383743E1,3.224453E0,3.5322105E1,5.58761E1,7.468292E1,2.8961168E1,8.514892E0,1.2191266E1,2.795259E0,2.204562E1,2.8018568E1,1.365174E0,1.6851164E1,1.8470942E1,4.923221E1,6.6438894E0,2.9623592E1,4.505933E1,1.7200115E1,1.1761052E1],"tree_param":{"num_deleted":"0","num_feature":"75","num_nodes":"29","size_leaf_vector":"1"}},{"base_weights":[-9.031062E-3,-9.552705E-2,3.311166E-1,-2.2173928E-1,9.932589E-2,-0E0,4.1858855E-1,-0E0,-3.5327473E-1,3.742182E-1,-3.7520047E-2,4.9706304E-1,-0E0,-4.835217E-3,8.433904E-3,-2.4145786E-2,-0E0,-0E0,2.2809464E-2,-1.0886352E-2,-0E0,2.5664113E-2,-0E0],"categories":[],"categories_nodes":[],"categories_segments":[],"categories_sizes":[],"default_left":[0,0,0,0,0,0,0,0,0,0,0,0,0,0,0,0,0,0,0,0,0,0,0],"id":55,"left_children":[1,3,5,7,9,-1,11,13,15,17,19,21,-1,-1,-1,-1,-1,-1,-1,-1,-1,-1,-1],"loss_changes":[6.5892644E0,7.3945675E0,2.0844846E0,7.850277E0,5.920312E0,0E0,2.343401E0,1.7659442E0,9.90546E0,3.9015017E0,1.7064658E0,9.737234E-1,0E0,0E0,0E0,0E0,0E0,0E0,0E0,0E0,0E0,0E0,0E0],"parents":[2147483647,0,0,1,1,2,2,3,3,4,4,6,6,7,7,8,8,9,9,10,10,11,11],"right_children":[2,4,6,8,10,-1,12,14,16,18,20,22,-1,-1,-1,-1,-1,-1,-1,-1,-1,-1,-1],"split_conditions":[4.2426407E-2,8.3679146E-1,1.6312242E-2,-2.7940968E-1,4.024963E-1,-0E0,7.9833764E-1,3.689324E0,1.9529693E-8,2.9011493E0,4.091488E-4,9.5E0,-0E0,-4.835217E-3,8.433904E-3,-2.4145786E-2,-0E0,-0E0,2.2809464E-2,-1.0886352E-2,-0E0,2.5664113E-2,-0E0],"split_indices":[49,36,34,65,42,0,42,67,41,61,51,28,0,0,0,0,0,0,0,0,0,0,0],"split_type":[0,0,0,0,0,0,0,0,0,0,0,0,0,0,0,0,0,0,0,0,0,0,0],"sum_hessian":[2.7084348E2,2.409824E2,2.9861073E1,1.714254E2,6.9557E1,2.8693914E0,2.6991682E1,4.680104E1,1.2462436E2,3.7845028E1,3.1711975E1,2.5836891E1,1.1547899E0,6.4936085E0,4.030743E1,9.203869E1,3.258567E1,2.385503E0,3.5459526E1,2.3505695E1,8.206279E0,2.3236164E1,2.6007283E0],"tree_param":{"num_deleted":"0","num_feature":"75","num_nodes":"23","size_leaf_vector":"1"}},{"base_weights":[-2.9599113E-2,-1.5921885E-1,1.4944996E-1,-0E0,-3.3850986E-1,3.3992165E-1,-0E0,1.8393396E-1,-2.3004064E-1,-0E0,-4.7578192E-1,4.3868133E-1,-0E0,6.444309E-3,-3.3566907E-1,-1.8798602E-3,1.9267803E-2,-2.2469154E-2,-0E0,-2.7362492E-2,-0E0,2.484869E-2,-0E0,-0E0,-2.7705258E-2],"categories":[],"categories_nodes":[],"categories_segments":[],"categories_sizes":[],"default_left":[0,0,0,0,0,0,0,0,0,0,0,0,0,0,0,0,0,0,0,0,0,0,0,0,0],"id":56,"left_children":[1,3,5,7,9,11,13,15,17,-1,19,21,-1,-1,23,-1,-1,-1,-1,-1,-1,-1,-1,-1,-1],"loss_changes":[6.525552E0,7.4259725E0,4.923044E0,3.9480767E0,7.736327E0,3.7487946E0,3.6466386E0,6.7771444E0,3.6901956E0,0E0,6.499838E0,4.172372E0,0E0,0E0,5.1267967E0,0E0,0E0,0E0,0E0,0E0,0E0,0E0,0E0,0E0,0E0],"parents":[2147483647,0,0,1,1,2,2,3,3,4,4,5,5,6,6,7,7,8,8,10,10,11,11,14,14],"right_children":[2,4,6,8,10,12,14,16,18,-1,20,22,-1,-1,24,-1,-1,-1,-1,-1,-1,-1,-1,-1,-1],"split_conditions":[4.5106924E-1,2.9352481E0,7.5E-1,7.00987E-1,-5.28005E-1,6.8649143E-1,-4.7033045E-1,8.095919E-3,5.5E0,-0E0,9.195004E-1,8.499708E-1,-0E0,6.444309E-3,-1.5621654E0,-1.8798602E-3,1.9267803E-2,-2.2469154E-2,-0E0,-2.7362492E-2,-0E0,2.484869E-2,-0E0,-0E0,-2.7705258E-2],"split_indices":[31,15,59,44,20,73,45,49,24,0,35,22,0,0,4,0,0,0,0,0,0,0,0,0,0],"split_type":[0,0,0,0,0,0,0,0,0,0,0,0,0,0,0,0,0,0,0,0,0,0,0,0,0],"sum_hessian":[2.582364E2,1.7743185E2,8.0804535E1,8.084288E1,9.658897E1,5.048841E1,3.0316122E1,6.0885246E1,1.9957634E1,1.825567E1,7.83333E1,4.5962093E1,4.526317E0,1.0949339E1,1.9366783E1,1.5864747E1,4.5020496E1,1.3540579E1,6.4170556E0,6.8797714E1,9.535582E0,4.3916027E1,2.0460682E0,4.662783E0,1.4704E1],"tree_param":{"num_deleted":"0","num_feature":"75","num_nodes":"25","size_leaf_vector":"1"}},{"base_weights":[-0E0,-1.0544057E-1,1.8435468E-1,8.241215E-2,-3.4351942E-1,-0E0,3.0736375E-1,-1.07846126E-1,4.1601655E-1,-4.8990965E-1,-0E0,-0E0,3.9876443E-1,-1.828928E-2,-0E0,2.807257E-2,-0E0,-0E0,-2.9671745E-2,2.4283439E-2,-0E0],"categories":[],"categories_nodes":[],"categories_segments":[],"categories_sizes":[],"default_left":[0,0,0,0,0,0,0,0,0,0,0,0,0,0,0,0,0,0,0,0,0],"id":57,"left_children":[1,3,5,7,9,-1,11,13,15,17,-1,-1,19,-1,-1,-1,-1,-1,-1,-1,-1],"loss_changes":[5.639162E0,1.0650135E1,4.5049562E0,8.754192E0,8.1868725E0,0E0,4.718219E0,3.9099946E0,4.199067E0,8.838526E0,0E0,0E0,5.0434217E0,0E0,0E0,0E0,0E0,0E0,0E0,0E0,0E0],"parents":[2147483647,0,0,1,1,2,2,3,3,4,4,6,6,7,7,8,8,9,9,12,12],"right_children":[2,4,6,8,10,-1,12,14,16,18,-1,-1,20,-1,-1,-1,-1,-1,-1,-1,-1],"split_conditions":[1.12172894E-1,6.0990416E-2,9.2059765E0,1.7798202E-2,6.445034E-1,-0E0,-3.3333334E-1,7.292203E-1,1.8825771E-1,2.2067136E-1,-0E0,-0E0,3.4228802E-1,-1.828928E-2,-0E0,2.807257E-2,-0E0,-0E0,-2.9671745E-2,2.4283439E-2,-0E0],"split_indices":[33,33,72,34,9,0,70,64,65,44,0,0,63,0,0,0,0,0,0,0,0],"split_type":[0,0,0,0,0,0,0,0,0,0,0,0,0,0,0,0,0,0,0,0,0],"sum_hessian":[2.701227E2,1.7377444E2,9.6348274E1,8.105682E1,9.271761E1,2.0142551E1,7.620573E1,3.9830784E1,4.122604E1,7.482063E1,1.7896982E1,5.1518197E0,7.10539E1,2.0211372E1,1.9619411E1,2.7059776E1,1.4166265E1,